941 300
leaflettuce -0.03956131 0.02720124 0.046412304 0.075383425 0.045355693 -0.016948376 0.07450788 0.028194362 0.0504215 0.0514661 -0.012408854 0.052781958 0.0017625876 0.11088651 0.09203409 0.063615054 -0.014750191 -0.061077572 0.10644794 -0.02410591 -0.06058587 0.041280817 0.048857365 0.031936377 0.005507849 -0.027042594 0.060290143 0.05595474 0.01478173 0.14111254 0.07196006 0.022458574 0.047566272 -0.007857449 0.014344221 -0.021435283 -0.012874156 0.076771915 0.026218154 -0.0059370603 -0.06668582 -0.0066117337 -0.026343398 0.043242693 -0.098375276 0.039443024 0.016163006 0.075623795 -0.013395036 0.0001480924 -0.11200273 -0.011842318 -0.02001378 0.018613022 0.059734143 -0.004016417 -0.0021450357 -0.00914608 -0.03236155 -0.021946467 0.027989216 0.028219838 0.024731476 -0.020028068 -0.05793434 0.018343916 -0.013659703 -0.084033124 -0.024015944 0.006718092 0.049989168 -0.06729447 -0.015870571 -0.031251315 0.04095446 -0.031854805 0.04413998 0.040218905 -0.0008211435 -0.04626877 0.045559175 -0.018555027 -0.06653685 -0.03587144 -0.025578849 -0.010547262 -0.0053882212 0.041283675 -0.037025653 -0.009705006 0.011279328 0.0070156455 0.007352089 -0.012396756 0.040006988 0.027547106 0.029132925 -0.024288777 0.028854337 -0.031294703 -0.042648844 -0.046407912 -0.1177081 -0.0026941812 0.01597252 0.0060830545 -0.019497171 -0.0803075 0.0215336 -0.12393919 0.031959187 0.0013073815 0.024020579 0.0141332075 -0.027059091 0.11637956 -0.011575105 -0.011270162 -0.05534692 -0.049554113 0.059702862 0.04767894 -0.034947775 -0.026970576 -0.022314705 0.02737731 0.058656678 0.07385941 -0.07589952 0.0020988127 0.10390149 -0.008898848 0.012072304 -0.06927402 -0.04756513 -0.07746096 0.084857844 -0.0025885827 0.07646844 0.02426586 -0.0061452547 -0.05147452 0.06774933 0.0019425638 -0.029870367 -0.052318465 -0.12437093 0.005100421 0.060462933 0.055895455 -0.017658968 0.046813004 -0.01807934 0.012228718 -0.019635718 -0.0022702198 0.02841413 -0.030304335 0.03667 0.0042903833 -0.030171078 0.056162156 0.06251574 -0.016322248 0.023687743 -0.06392897 -0.011430374 0.032974035 -0.009842129 0.08758639 -0.016318398 -0.041145466 -0.117621675 -0.0016796412 -0.003955235 -0.06999566 -0.018980904 0.005570009 0.009179381 -0.082090765 -0.055027157 -0.019960532 0.04289214 -0.061903194 0.044558868 -0.0040742145 0.087231554 0.008762001 0.015711822 -0.0848161 -0.052313052 -0.053416237 -0.046301067 -0.03153214 -0.06368065 -0.0019827432 -0.058919054 -0.012812866 0.0012516752 -0.04971507 0.020428564 0.018634677 -0.070538476 -0.05670198 -0.012054818 0.03365616 0.004466383 -0.001751069 0.077060446 0.06767972 0.003992616 -0.015115537 -0.027658528 -0.080255136 -0.102531455 0.03787568 0.044847094 -0.1367393 -0.029635422 0.049799383 -0.0119441375 -0.00400614 0.041608565 0.093521744 -0.041678384 0.012862147 -0.0048572095 -0.015464384 -0.09370375 -0.005152859 0.012077822 -0.062210917 0.0235001 -0.048492096 0.00024282979 0.0015471475 0.078694135 -0.0689989 -0.06917643 -0.0363989 0.025969142 0.013525964 -0.0668382 -0.055395555 0.07901841 -0.03269689 -0.008053924 -0.039874412 0.011382316 0.06313895 0.05434624 -0.0012627607 0.0083010495 -0.043918356 0.033221234 0.11235316 -0.022419892 0.009696644 -0.0013139145 -0.033459947 -0.0015357933 0.009361967 -0.015590901 -0.013257619 -0.038204797 0.015616056 0.018333254 0.08112293 0.0088375285 0.0089079775 -0.015621342 -0.0020505488 -0.07308975 -0.016097981 0.10397884 0.05475918 -0.036632966 -0.02006379 -0.023927541 -0.050606214 0.09144222 -0.018349929 -0.02736571 -0.07341938 -0.015284687 -0.028023284 0.07128206 -0.030165505 0.041987553 -0.039086968 -0.017508244 -0.064737394 -0.038127445 0.12838341 -0.052796144 0.002421543 -0.01657486 0.13244122 0.03787373 0.046543136
apricotliqueur 0.008569997 -0.041493665 -0.055657655 0.056350607 0.09596525 0.042647276 0.033749063 -0.060725227 0.0068827905 0.0214124 -0.0034537185 -0.0659686 -0.040033013 -0.0557038 0.110159285 0.024286062 -0.09167795 0.048396785 -0.024483668 0.037603676 0.047102064 -0.00075298175 -0.022220615 -0.057575785 0.008255313 -0.0015549492 0.13740611 -0.07193805 -0.050306235 0.16950896 0.05671332 -0.011618495 -0.009478803 0.027245127 0.059431642 -0.020808473 -0.017172758 0.03136925 0.047834277 0.0047018547 -0.023658244 0.06657844 0.033764996 -0.07487275 -0.09949146 0.029716719 -0.011304593 0.015601594 -0.02167479 0.007419685 0.013238307 -0.012652209 0.0038154856 -0.0753518 0.07305113 0.043596324 -0.011811517 -0.05981914 -0.027088836 -0.08164993 0.00674928 0.043297995 0.122342736 -0.016142417 0.012374708 0.0071129575 -0.002549518 0.013311016 -0.11108975 -0.07167186 -0.008281659 -0.053593986 -0.045789912 0.061004616 0.020407002 0.052572727 -0.0053665526 0.09590907 -0.0053331563 -0.025674492 0.03478524 0.043596625 -0.028658193 -0.048054717 -0.10235597 -0.02250488 -0.008010517 -0.0004863384 -0.018394727 -0.009833703 -0.073152326 -0.033024702 -0.04547441 -0.00037349388 0.04056117 0.009329836 0.034039922 0.039057367 -0.057480045 0.06605126 0.029254664 0.039452333 0.023872536 0.020985985 -0.010312276 -0.018636234 0.0014248546 0.059592858 -0.019152535 -0.050169297 0.019230384 -0.013431424 -0.022653978 0.009862648 -0.018513266 -0.014974918 0.028826682 0.02825803 0.02727307 -0.02905991 -0.00738528 0.027267512 0.053287096 -0.016379908 -0.016486308 0.048640814 0.0004703654 0.040512726 0.040784128 -0.022149347 -0.006736207 -0.119535744 -0.03378755 -0.03668355 0.011961619 -0.009369766 0.09984464 -0.055874877 -0.024823826 -0.062960856 -0.020186812 -0.001306342 -0.009017074 0.05953545 -0.05946125 -0.12785496 -0.11940867 -0.006416561 0.014239654 0.014053833 -0.02892371 -0.008905283 0.000501391 0.08773354 0.054407272 0.039941918 -0.00074408296 -0.047626447 -0.021257002 -0.0082284175 -0.027596124 0.040237788 0.052653953 -0.011233232 -0.06420243 -0.07623792 0.04555348 -0.036167856 0.012618446 -0.020872533 -0.095171094 0.018737774 -0.004592318 -0.013575668 -0.008090331 -0.06480821 0.006019455 0.07151008 0.07026845 0.0082359165 0.0038516475 -0.025714366 -0.018683258 -0.08899151 0.051576212 -0.06943512 0.09073757 -0.04369735 0.06534542 -0.068149954 0.064319566 -0.034475118 0.016805869 -0.010614 -0.036767174 -0.08454032 0.00204049 -0.027719848 -0.032413896 -0.063986346 0.042244732 0.029293058 0.0039866087 -0.02165867 -0.021940067 0.02965238 0.0013638056 -0.087723255 0.06379308 0.085211515 -0.05486659 0.038447827 0.04017454 -0.046891127 -0.122789636 0.027489519 0.008302782 -0.10939066 0.058468446 0.0445187 -0.05245811 0.02234419 0.08041539 0.07113022 -0.0031055128 -0.011525672 0.12028297 0.1026659 -0.025203325 -0.0049759266 -0.01834667 0.06392386 0.07133638 0.04597758 -0.037846614 -0.011700685 -0.047508925 -0.022612678 0.008978175 0.0015696045 -0.0057494286 -0.002247738 0.013344147 -0.033825494 0.09205304 0.06752867 0.002084246 0.011147996 -0.083401754 0.043042574 0.028572194 -0.017519647 0.02178563 0.004891776 0.060472324 -0.051404685 0.0140298195 -0.021290064 0.0063068173 0.043995287 -0.029233541 0.0017246472 -0.004354765 0.0422871 -0.05493 -0.00964604 0.010973137 0.035840213 0.0057857763 0.05514945 -0.022692118 0.06272754 -0.071961835 0.020295408 0.013196942 0.07069211 -0.058375597 0.0087299105 -0.013958715 -0.05344358 0.12586866 -0.024004888 -0.022669248 -0.041553166 0.020775236 0.04062104 -0.04433998 0.022524087 -0.029898666 -0.016384441 -0.03113465 0.04867945 -0.048197374 -0.0084757 -0.020770911 0.020809224 0.07880413 0.1165894 0.045985878 0.045268025
smokedmeat 0.02297888 0.0034745233 0.04576055 0.07713106 0.03762095 0.07591741 -0.0019290186 -0.0059626354 0.032115977 -0.0048346454 -0.026755359 -0.013402747 0.018549599 0.017882738 0.06514754 0.06094014 -0.03383603 -0.041322306 -0.08327399 -0.03814583 0.0036458645 -0.027466029 -0.02805741 0.00090671564 -0.0070071565 0.052071184 0.040083826 -0.03140868 -0.012648551 0.106769495 -0.070220575 0.060358897 0.07255386 0.06718651 0.022463987 0.042232536 0.041732173 0.061567098 -0.0022726017 -0.06874189 -0.0155294575 0.05354151 -0.015514044 0.014932981 -0.096357435 0.01752196 0.02872359 0.023540026 -0.072765805 0.02462668 0.006735551 0.01764375 -0.045836788 0.023860408 0.0057286965 0.016300023 0.00048064068 -0.027691452 -0.08158188 -0.0054267915 0.05075434 0.022026384 0.019225223 -0.025562428 0.0031864177 -0.033395067 -0.0108353775 0.016955988 -0.06519516 -0.13484555 -0.042034615 0.0031613954 -0.002318576 -0.028662158 -0.02582264 -0.08632678 -0.027262632 0.020122252 -0.0011959346 -0.048104163 0.06589079 -0.03357458 0.0691455 0.018654913 -0.0155535955 -0.09059999 -0.012337109 -0.008315166 -0.054639243 0.042153854 -0.01694952 0.04756111 0.023245342 -0.010377011 0.057418507 0.03059205 0.04018471 -0.018344298 0.05011546 -0.13459234 -0.07010645 0.014862324 -0.04917708 -0.01922425 0.022782467 6.205519e-05 -0.016257018 -0.015756045 0.043876298 -0.08064914 0.032593556 -0.011983187 0.06320915 0.047408685 0.013728096 -0.03378681 -0.0786171 0.014725206 -0.0030062404 -0.050264604 0.02301982 0.07540847 0.043313533 0.06169307 0.06550226 -0.021147968 0.05331015 0.09615022 0.07368426 -0.046902653 0.08714486 -0.0035731383 0.0168165 -0.035069615 0.003383777 -0.047096904 0.08693583 -0.039088406 0.0468313 0.03197928 -0.056102335 -0.08611547 0.022370223 0.03286736 -0.022340696 -0.04298847 -0.10729888 -0.010675761 -0.10251315 0.09126236 -0.028130691 0.018394668 0.0017129951 -0.037693024 -0.0637479 0.08446234 -0.0038910517 0.0020297281 0.04718032 0.043768138 -0.02252377 0.06952824 0.03547678 -0.06916353 -0.026032824 -0.04401131 -0.09580939 0.0103139505 0.074155256 0.081087686 -0.092542015 0.06021087 -0.026126437 -0.042241283 0.015924545 0.027178384 -0.047378067 0.020916052 0.022224458 -0.0966374 -0.056438334 -0.034984812 0.055167742 -0.07070126 0.05474267 0.0060371505 0.08464125 -0.03447469 0.028729241 -0.09775828 0.000863228 -0.036320865 -0.038000338 -0.033456836 0.07307162 -0.008820655 0.0026260875 -0.06581022 0.020009626 0.032389168 0.02144267 0.029381957 0.08216057 -0.008461816 -0.0057881717 0.03294856 -0.005949664 0.01421417 -0.013668391 0.07103836 -0.0350898 0.011791194 -0.034976833 0.010022834 -0.12616396 -0.0062776934 -0.06877897 -0.094625354 -0.04164056 0.049642548 0.035341278 0.091494605 -0.038394153 0.0824913 -0.0112923095 0.021760635 0.02794442 0.02601029 -0.05786656 -0.051376726 -0.06278233 0.02729097 -0.015723733 0.040109284 0.0032743746 0.008193985 0.017882816 -0.050012186 0.033947963 -0.011623086 0.02506112 -0.005345567 -0.056022406 -0.06915407 0.0931289 -0.020466592 -0.0017032445 -0.0069971196 0.020789707 0.10455616 -0.0409672 0.04592998 -0.0057476386 0.09021452 -0.016393855 -0.044576593 -0.03201104 0.018415669 0.04779522 -0.0081543345 -0.008269295 -0.019318145 0.017486516 -0.0129825855 -0.023186043 0.088091426 -0.037923038 -0.050203547 -0.021202726 -0.01465627 -0.06813673 -0.03327644 -0.09255564 0.008867806 -0.021641387 -0.009722903 -0.03515111 -0.0066852467 0.0048036873 -0.05627327 0.076480485 0.013239032 -0.026540697 0.035206348 0.014567981 -0.048707705 -0.016742969 -0.043455437 -0.0022306507 -0.037950333 -0.048416883 -0.07702647 -0.05783863 -0.107841924 0.010736134 0.03609829 0.02023865 0.093337506 0.065102726 -0.01592303
figjam -0.030759485 -0.025595536 -0.019305954 0.089413926 0.04489672 0.019640693 0.04332761 -0.012957225 0.010205052 0.06395505 0.009798966 0.026313296 -0.0481218 -0.019291358 0.07349519 0.06381351 0.0023006178 0.10336436 0.017010538 -0.009736204 -0.040470745 0.047106754 -0.022141501 0.0029047132 -0.0031289512 -0.08920816 0.034064714 -0.022307146 0.022673454 0.09024207 0.06253566 -0.009148375 0.01940228 -0.0026911818 0.0011710776 -0.03362181 -0.009718481 0.041860666 0.015025899 -0.022850195 0.007624753 -0.00010204525 0.0028183814 0.033798963 -0.061256792 0.069421165 -0.061876707 0.13469929 -0.055404026 0.07849617 -0.0020393138 0.052690487 -0.025283637 0.013588427 0.042921416 -0.030144695 0.020826062 -0.054469027 -0.042757764 -0.10921305 0.03081908 0.05968732 0.054551277 -0.0027771886 0.009196892 0.14531767 -0.066403866 -0.009547879 -0.09626107 0.01237331 0.020037126 -0.060506865 -0.0013256669 0.021891339 0.032570343 0.012766812 -0.057801075 0.015268715 0.004347993 -0.097700186 0.07523439 0.02096834 0.0070611993 0.044470243 -0.041913386 0.018250372 -0.064798675 0.015040186 0.015236335 0.036988925 -0.025278797 0.077882975 0.022863729 0.020548116 0.039932303 0.030145194 -0.015238607 -0.02895629 -0.0110985935 0.06831174 0.04088109 0.050370663 -0.016097121 0.0163776 -0.015632037 -0.003351714 -0.007350388 0.026046764 -0.049054418 -0.0693375 0.015543863 0.058684602 -1.8697232e-05 -0.031469725 0.035981383 0.08501094 0.017753819 0.06074952 0.03981407 0.007649433 0.05097273 0.014976195 0.029908087 -0.005518404 -0.05663494 0.00083443895 0.083445795 0.00889018 0.042203084 0.008614954 0.0328793 -0.03283001 0.029888444 -0.098112494 0.020989984 -0.0143602 0.06245046 0.04224032 -0.039447468 -0.03739067 -0.018699646 -0.026622524 0.048260693 0.041287906 -0.057342358 -0.051009588 -0.13722861 0.02858891 0.07498841 -0.031310678 0.0007966588 0.09196612 -0.03475752 -0.016504355 0.04865349 0.027350545 0.029652609 -0.024395809 -0.0420803 -0.06585285 -0.032785684 0.052396655 0.059721053 -0.034347713 0.03498547 -0.011663005 -0.04110937 -0.004073264 0.01845571 -1.1716038e-06 0.026892897 0.036322705 0.03599428 -0.0022790795 -0.029564481 -0.02992006 -0.04197087 0.05897342 0.08301428 -0.067963466 -0.09407224 -0.0060399724 0.024975302 -0.034141272 0.05779322 -0.00046559796 0.053665627 -0.01891435 0.13833602 -0.007810515 -0.044298816 -0.05763618 0.08518849 -0.024750404 0.03015069 -0.050724037 0.017065816 0.028358841 0.042879283 -0.042936064 0.017244574 0.016331946 0.000580037 -0.00040883478 -0.034180585 0.075025655 0.01739884 -0.038278855 0.051653776 0.040329866 -0.033328198 0.04693331 -0.0107356105 -0.081026755 -0.0354175 0.01736979 -0.022771914 -0.14568135 0.02113042 0.015798632 -0.08943181 -0.0041298163 0.03029058 0.07066822 0.0073424694 -0.053555682 0.047173046 0.019198086 -0.052245986 5.8922917e-05 0.031278476 0.08416205 0.021043338 0.017790366 -0.030930154 -0.01704486 0.026999623 0.026429001 -0.05082716 0.020296915 -0.023675106 0.008939637 -0.019441238 -0.045766443 0.09424573 0.016766714 0.05918844 0.00015395693 -0.03746917 0.0581744 0.040592857 0.0028557256 0.007457489 0.04336993 0.099011794 0.03377533 -0.03467967 -0.0050488245 0.02513031 -0.04885364 -0.03240623 -0.00044699875 -0.0077484613 0.02190292 -0.02517103 -0.043642618 0.0034451426 0.0623361 -0.010491036 0.005718545 0.0238917 -0.037603952 -0.036958788 0.025050778 0.05029179 0.04625251 -0.066095844 0.029426353 0.019745491 -0.043329343 0.084999956 -0.030315815 -0.028605592 0.034375597 -0.011306792 -0.04242759 0.025808122 0.030179456 0.07030812 -0.077116385 0.003519041 0.030218877 -0.06415427 0.08005693 -0.06006402 0.10037463 0.019186245 0.032031655 0.015549472 -0.046276968
ricecake 0.004032855 0.028717982 0.008106286 0.0713649 0.025681954 0.050153486 0.09078057 -0.013913363 0.043906912 0.04265262 -0.07095197 0.00239129 0.023102513 0.026729252 -0.06335727 0.07877677 -0.030885115 -0.017945629 -0.036911808 -0.009220399 0.019473849 0.039678033 -0.085878 -0.009935208 -0.017430924 -0.0071158586 0.09830122 0.027034184 0.03057909 0.118398614 0.029001955 0.040933155 -0.006069005 -0.007307207 0.04187034 -0.0008151978 -0.021805458 0.08311916 -0.041961763 -0.03305652 -0.08112635 0.023085851 0.07099709 0.043047484 -0.105437614 0.030595068 -0.040025905 0.023581207 -0.012731644 -0.024466468 -0.006394393 -0.097773075 0.0197248 0.00020393124 -0.04473405 -0.009380445 -0.005871238 -0.046095226 -0.06732584 -0.053272285 0.029005526 -0.022459583 -0.02386551 -0.010114692 -0.006399983 -0.019344045 -0.009839984 0.046644486 -0.0310652 -0.0045586694 0.03720456 0.02808681 -0.0037978366 -0.026928838 -0.018066479 0.070166096 -0.026126686 0.009360002 -0.012574885 -0.060745776 0.052357193 0.09453065 -0.044598207 -0.0701617 -0.012971068 -0.009777032 0.0030557606 0.018253721 -0.087944195 0.002180928 -0.03282027 -0.055021927 0.0010739383 -0.015372379 0.025025433 0.035460662 0.036325213 0.05664651 0.0047245496 0.027253544 0.0043632137 0.01198403 -0.0430429 -0.022439575 0.04951972 -0.01147695 -0.06533526 -0.090670235 -0.13799271 -0.08083443 0.010731096 0.0075046755 -0.014698951 0.031783994 0.04358255 -0.0848189 -0.036144324 0.09315425 0.0017746035 0.012841566 -0.015899092 0.01818386 -0.09639792 0.07005545 -0.03106003 0.03633177 0.007654542 0.071973376 0.044690926 -0.051804528 0.040251803 0.023768391 -0.064453684 -0.032132767 -0.021365646 0.0016292892 0.083616525 -0.056178376 -0.010977704 -0.073815465 -0.027459852 -0.10462652 0.015205435 -0.014162186 -0.06425184 -0.049983583 -0.11244926 0.076836705 0.05260683 0.029161189 -0.0435158 0.011480827 -0.006763644 0.025460161 -0.070625335 -0.015328358 0.04162643 -0.017759271 -0.0056369556 -0.028300555 -0.00249663 0.06079607 0.07355474 -0.01857659 0.026054444 -0.07913336 -0.04447978 -0.027087448 0.053895883 -0.025926292 -0.040188447 0.026848592 -0.00926115 -0.03216816 -0.05635821 -0.09319118 0.0042700674 0.03566605 0.070345856 0.015412798 -0.017895393 -0.04289438 0.033167675 -0.08223079 0.026240518 -0.017179769 0.07609536 -0.033262838 0.019029288 -0.026149536 -0.0534513 -0.016579486 -0.061667506 -0.0975817 -0.008099126 -0.008257477 0.017541874 -0.008463337 -0.08303218 -0.021593569 0.05837883 0.00545417 0.01079982 0.013314774 -0.016713088 0.018554354 -0.010809934 -0.014769096 0.06079293 0.076716274 -0.06164807 0.082980126 0.002694528 -0.04428654 -0.03131876 0.005332969 -0.04029712 -0.09418417 0.03638324 0.01732425 -0.007834621 0.027480565 0.059299257 0.077636525 -0.029068235 -0.035523344 -0.024245843 0.106387064 -0.053983353 -0.044193543 0.012966946 0.0060417755 0.014194889 0.072888546 0.004178945 -0.01517859 0.089112744 0.016360138 0.036554005 0.010619483 0.01314171 0.0077111525 -0.022845363 -0.056868028 0.07153043 -0.04151255 -0.0145894345 0.055262692 -0.061555397 0.057492264 0.050870597 0.03153552 -0.09986068 0.007278906 0.022356551 -0.043873295 -0.04692862 0.017235592 -0.0024394188 0.054248687 -0.02233364 -0.011258063 0.006887599 -0.0007008659 -0.058415525 -0.035079032 0.038641747 -0.039490443 -0.013752845 0.0046317973 0.0206082 0.01226803 -0.07254551 -0.013372443 -0.005688658 0.050289333 -0.069096215 -0.012071124 -0.0062808823 -0.03300389 0.07563405 -0.040313177 -0.046751264 -0.057773598 -0.046574216 -0.024958327 -0.0027940124 -0.043409094 -0.013021962 0.03304605 -0.051489137 -0.03285171 -0.061521724 -0.06702525 0.03389436 0.054744847 -0.046970375 0.13278061 -0.006842238 0.001877917
aniseseed -0.07930405 0.07097627 0.016803892 0.022837948 0.0023686392 -0.017289456 0.0688937 -0.026854537 0.011446236 0.0890592 0.05546939 0.032158826 0.061924104 -0.009937396 0.06418002 -0.024287391 0.030351792 0.013780043 0.07765213 0.028705427 0.00038603693 0.042724796 0.027379265 -0.02433388 -0.0044473857 0.0015013665 -0.015923694 -0.038139023 0.02952687 0.15736592 0.05201513 -0.12861422 -0.005010507 -0.007159304 0.0552971 -0.0052041556 -0.0020626374 0.049656387 -0.030810855 -0.0019947328 -0.04292525 0.06677587 -0.00444954 -0.028522873 -0.09699204 0.029025108 0.003936317 0.07629828 -0.005604713 -0.012604348 -0.08110459 -0.04660937 -0.003924189 0.012239872 0.005765641 0.06966663 0.009567188 -0.051745962 -0.005203535 -0.065413654 -0.013367368 0.058497805 0.09066613 -0.023673745 -0.01947521 0.07913692 0.0037436672 0.036457576 -0.091267236 -0.11847666 -0.011416977 -0.072463065 -0.05431087 0.021039762 -0.017581046 0.012451764 0.05089166 0.04911366 0.014680118 -0.02867392 0.04611045 -0.0040609157 -0.014758973 -0.052697383 -0.014323335 -0.027612008 -0.061798792 -0.009149931 -0.061658215 0.010172896 -0.002499721 -0.05499908 -0.03608886 0.069330245 0.0702357 0.025640775 0.044529602 -0.050740812 0.022200922 -0.0068507213 0.08564021 -0.020621449 -0.022861974 -0.0009928118 0.0105569605 -0.04946778 0.031377435 0.0028038304 0.0011618156 0.025974758 0.010844441 0.018825822 0.00081051793 0.040790185 -0.039182078 -0.010617087 0.04205603 0.04422974 -0.011249481 -0.052469935 0.11247596 0.083672605 0.020409629 0.090249896 -0.00591343 0.02984025 0.05080682 0.0182921 -0.03199207 0.008892451 0.08253566 0.03054181 -0.035717055 -0.026785715 -0.011152814 -0.039332017 0.072142236 -0.019188132 0.039283935 -0.01841622 0.0014167787 -0.043185137 -0.04055862 0.062136523 -0.0448452 -0.08718221 -0.10355939 -0.03752335 -0.032482114 0.0032706931 0.014125967 0.02104624 -0.013098478 0.0823483 0.017039292 0.031314533 0.0058113434 0.07778974 0.02547137 -0.024285212 0.02415698 0.06177582 0.07254043 -0.044719193 0.013218037 -0.008469248 0.08084538 0.09447633 -0.018305037 0.017840486 -0.07404517 -0.0151694715 -0.028203275 -0.018899532 -0.073164985 0.012898514 -0.011084091 0.10646357 0.100973755 0.070486955 0.018444004 -0.004994064 -0.024219422 -0.07187304 0.033207912 -0.010581346 0.077470236 -0.011389101 -0.017040178 -0.03339407 -0.008249348 -0.017486678 0.0038536992 0.012635111 -0.03167779 0.026133586 -0.004835557 -0.055435777 -0.034117084 -0.03996392 0.01793324 0.023389744 -0.051420793 -0.02098586 -0.00063923374 -0.011875216 0.0050943703 -0.03875017 0.052599564 0.12991153 0.011586267 0.07034519 -0.040212743 -0.056638774 -0.07099208 0.023715544 -0.062793165 -0.08770497 -0.014788609 0.06185967 -0.014396014 0.03797813 0.022980321 0.045085423 -0.036073785 0.036511358 0.08704512 0.07221994 -0.046706565 0.059541628 -0.016544271 0.016742548 0.0113220895 -0.052671585 0.029712215 -0.00300923 -0.033001054 0.011905386 0.01786206 -0.03814346 0.005683856 -0.025321146 -0.020383248 -0.05855216 0.07164177 0.11028895 -0.005427882 0.033471074 0.0256972 0.043517094 0.029759046 0.013111134 -0.04334954 -0.01219993 0.028925579 -0.0044905283 0.01945566 -0.04901518 -0.0008719349 0.09374055 -0.015722798 0.015977839 -0.003782678 0.042602554 -0.057203047 0.04687474 -0.01848298 0.031810645 0.075185224 0.01289436 -0.007644681 -0.0099635655 -0.06637725 0.047222074 -0.010443017 0.0223187 -0.034990948 -0.0072230604 -0.022400867 -0.01941153 0.07751842 -0.033208705 -0.004548249 -0.08178136 -0.050977357 -0.010541768 -0.04842182 0.026686974 0.071309164 -0.07113597 0.013959356 -0.021357475 -0.05746065 0.03429429 0.0054552425 0.006767939 -0.007239388 0.12832978 0.08397144 0.035868466
pickledcapers -0.0249868 0.0067120763 -0.060336415 0.06173408 0.08029236 0.0616819 -0.048253283 -0.008805844 -0.019463465 0.077037685 0.06781876 -0.011915324 -0.026582688 -0.014180444 0.07737645 -5.362183e-05 -0.072909415 0.0064651654 -0.04849915 -0.013028125 -0.0036197752 0.06844005 0.040112846 0.033529244 -0.019091403 -0.024415065 -0.0055077034 -0.0449463 -0.00048978627 0.12803541 -0.023533016 0.023995692 0.0032934472 0.077007525 0.009698933 -0.033698503 0.025847454 0.00852861 0.021603126 0.03298384 -0.036689896 0.032627787 -0.010960171 -0.024393035 -0.09287225 -0.013891306 -0.021286087 0.14376263 0.039846793 0.052118253 -0.14570741 0.072252914 -0.07373057 -0.020378958 0.062638916 -0.032253087 0.025588507 -0.0008978029 -0.05081268 0.024062015 -0.038108952 0.047821127 0.07825725 0.005579842 0.015091322 -0.0116007 -0.0069134235 -0.053660594 -0.048296086 -0.08804464 -0.07050198 -0.029326905 -0.024190009 0.058303922 0.08001755 0.06689856 -0.020550007 -0.010396833 0.039885636 -0.010677749 -0.056305587 -0.079887 0.02075304 0.007497358 -0.010664744 -0.045497883 0.01772678 -0.01751384 -0.032646574 -0.00094646215 -0.053586163 0.056095596 0.004946595 -0.008581091 0.057752993 0.006294554 0.0077533447 0.051569965 0.107829876 -0.029602846 -0.024712862 -0.017923199 -0.0276073 0.025678908 0.014588007 0.049186934 -0.046059217 0.047236852 -0.040464662 -0.053414375 0.008564739 -0.0013438696 0.023534903 -0.0037768157 -0.022663888 0.012683995 -0.055451125 0.08669228 0.018204426 -0.049573828 0.018953992 0.07163875 -0.05792979 0.023238841 -0.00894545 0.085326105 -0.026263649 0.07169949 -0.052665956 -0.07057085 0.096078314 -0.053682975 -0.012722822 -0.00039760768 0.031666365 -0.065183505 0.09061214 0.06407514 0.002279289 0.09302202 -0.01942563 -0.022290412 -0.014397679 0.04599204 0.0041735186 -0.058021173 -0.104751706 0.0018021159 -0.050341707 0.01653979 0.011710363 0.056306284 -0.008558053 -0.044747073 -0.005537728 -0.031793546 -0.002461181 -0.06171408 0.02120394 -0.038996592 -0.023148447 -0.0140904635 -0.019424213 -0.061418425 0.003941261 -0.00084600504 0.007810641 -0.09076382 0.030243281 0.03666927 -0.029424613 -0.018482393 -0.010165146 -0.04981846 -0.033024956 -0.017912613 0.01871151 0.061375186 0.071892664 -0.043919664 -0.06650618 -0.029795442 0.0691711 -0.02873568 0.028212454 -0.04006164 0.050290596 -0.013754745 0.07700861 -0.059025113 -0.067563236 -0.015568405 0.012741484 0.013123285 -0.011805358 -0.044947192 0.05097087 0.10085328 -0.04906144 0.042225126 0.04236004 0.05883647 0.09530911 -0.014009178 -0.02147333 -0.021775817 0.030213486 0.0733258 0.05402287 0.059371717 -0.09081483 -0.05045604 0.03765051 -0.082880944 -0.12736902 0.036503285 -0.0926214 -0.13507165 -0.010578588 0.018009927 0.024960572 0.010175451 0.021858826 0.058550566 -0.050709307 0.072137244 0.04445142 0.0061577614 -0.06105374 0.010388205 -0.009584611 0.005035866 0.038119428 -0.02549598 0.02857583 -0.014143448 -0.018040132 0.008851132 -0.002478268 -0.05826966 0.069608316 -0.0112652 0.016530111 -0.051986307 0.122600794 0.06077753 -0.026688414 -0.019462032 0.0037031798 0.0867693 0.05496725 0.02324513 -0.060409606 0.049656253 -0.036972284 -0.032389864 -0.08447827 0.00569327 0.058809236 -0.09184073 0.05744069 -0.03629958 0.03572515 -0.056743965 -0.02707855 0.042658128 0.020248115 0.032245282 -0.008452136 -0.012097164 -0.024585936 0.026494164 -0.033174824 -0.019188996 -0.002537012 0.038716618 0.014507962 -0.0018678096 -0.033250354 -0.024190221 0.07579974 -0.06625931 -0.028553348 0.016647799 0.018226504 -0.073523656 -0.053028136 0.05197727 -0.042577803 0.006266132 -0.042261153 -0.023946568 -0.10197061 -0.005058624 -0.034441005 0.013946369 -0.014293696 0.13700593 -0.05288486 -0.012163669
spread -0.009266579 -0.034817595 -0.020085072 0.088561885 0.009923696 0.031785578 -0.14098276 0.022718376 -0.056885682 0.073289946 -0.098866865 0.044249784 0.009606752 0.09923483 0.033767 0.0066874083 0.10913166 -0.028177701 0.026730724 -0.006966547 0.032250855 0.024370398 -0.06538096 -0.056600973 -0.02394821 -0.038948536 0.00088428234 -0.0054714307 -0.014335194 0.02852217 0.13840817 -0.057162303 -0.050545894 0.006173326 -0.090836875 0.024272356 -0.004372279 0.0684315 -0.11160335 0.051524956 -0.023739241 -0.029614516 -0.004207437 0.018394653 -0.011733085 0.055671647 0.014364499 -0.007814502 0.012320736 0.033088688 -0.0152049735 0.0033980263 -0.025547078 -0.083869845 0.041109037 0.11225832 -0.087268114 -0.0050261663 -0.12611218 -0.041677374 0.05251667 -0.06296139 -0.06318652 -0.024112 0.087627806 0.1024725 -0.054853063 0.0069330735 0.048504274 0.036361672 -0.004061898 -0.108559966 0.044698715 0.13336974 -0.03414078 -0.069942825 0.057798136 0.044004854 -0.009815242 -0.08338423 0.088391356 -0.03793126 0.0097023025 0.02451751 0.032204583 -0.09183498 0.07414691 0.0037837683 -0.022903336 0.041600786 0.12859346 0.0009771963 -0.025094254 -0.033050682 -0.00084089127 0.04721649 0.042263187 -0.037539832 -0.04295382 0.06991162 0.0020683582 0.059286322 0.007872562 0.030830568 -0.062269285 -0.06860806 -0.12900893 -0.088973366 0.114981994 0.0032753816 0.016466634 0.0005320288 0.016445026 0.06485039 0.021428531 -0.09771171 -0.013174448 0.071299426 -0.06905151 0.023597278 0.053568814 0.040477566 0.045086343 0.04505844 -0.0048962804 0.00840076 -0.031493884 0.003291925 -0.028235866 -0.010890639 0.05113171 -0.0408545 0.0034379289 0.028122416 0.04826419 0.011653717 0.008306397 0.011440809 0.03444343 -0.06988586 -0.054255392 -0.11687023 0.07039993 -0.05957633 -0.03189344 -0.10084621 -0.13456504 0.118796326 0.105886504 0.0021984784 -0.033093736 0.10670282 0.048050527 -0.036556277 -0.0048874775 0.028503722 0.04839738 -0.050039835 0.014019886 -0.06567553 -0.010286405 0.039839655 -0.040520415 0.025772879 0.032468863 0.039142486 -0.013448661 -0.036381792 0.06540702 -0.065011166 -0.17482935 0.026511608 0.014508421 0.049191758 -0.006027624 0.053806916 0.043355312 0.13320766 0.06498032 0.03006902 0.051865183 -0.036866624 -0.0014973343 -0.081027895 0.0052368734 -0.03187912 -0.034167618 -0.0030421175 0.05115929 -0.15133974 -0.02826383 0.004319471 0.043590017 -0.055794194 -0.06459831 0.043703016 0.030136151 -0.056276266 0.0060853832 -0.029327916 -0.016095258 0.051171873 -0.075522386 -0.06772045 -0.025432352 0.055971477 -0.06547914 0.051291425 0.0044091777 -0.010248414 -0.030138632 0.034742523 0.038956594 -0.02678397 -0.043122604 -0.054495882 -0.0019598657 0.059211265 -0.04708076 0.023397947 0.092128165 -0.059780437 -0.036335934 0.08443846 0.00069969747 -0.00904978 0.046548676 0.033325978 0.006806019 0.11595593 -0.044348836 0.024381064 -0.021705296 0.06981976 -0.021024818 -0.0064568263 0.0013915783 0.015398507 0.070889086 0.046929423 -0.07772145 0.114310615 -0.16163279 -0.09153334 0.14119075 -0.0047302553 0.0775566 -0.018906774 0.04790012 0.06577703 0.0335613 0.010659712 0.05630598 0.028368816 0.02116868 0.054029386 -0.070451654 -0.030957531 0.013398679 -0.09949326 0.021198502 0.035576493 -0.035107527 0.06735551 0.050978694 0.049792625 0.062250428 0.026477728 -0.17552188 -0.010196566 -0.050448317 -0.058163483 -0.076160155 0.00770113 0.027431723 0.002243464 0.05679507 -0.0052997 0.07041466 0.0015159802 0.092821375 0.052530847 -0.040788747 -0.004912766 -0.055608943 -0.00095023244 0.082060225 -0.021535577 -0.017437218 -0.011888253 0.053371053 0.03213409 -0.070830986 0.09222303 0.06336377 -0.0074720564 -0.010504624 -0.013961107 0.03979989 0.01915974
vealshoulder -0.024663683 0.026806531 0.030808382 0.112304464 0.031717487 -0.022825398 -0.0065169195 -0.06353891 0.0022568936 -0.012923773 0.013899968 0.0011583399 -0.056600552 -0.049828537 0.05921855 0.04589333 -0.00884623 -0.016427144 -0.121213794 -0.04795097 0.06358014 0.02176934 -0.024998026 -0.033528842 0.031094644 0.051030062 0.057173982 0.020163782 0.06498657 0.11879845 -0.039970025 0.03761249 0.0003120848 0.032684173 -0.028254792 0.07534449 0.017960012 0.095003895 0.013573181 -0.12254138 0.03859267 -0.008829034 0.00085524097 0.01081983 -0.057867423 0.05366628 0.057199642 0.008721497 -0.0042602792 0.046880815 0.031088121 0.016551549 -0.050703634 -0.03502783 0.07569484 0.03097029 -0.028131317 0.026410777 -0.048416644 0.005986167 0.09773345 0.036046967 0.08475672 -0.024607498 -0.014798019 -0.012025934 -0.033535395 -0.027967919 -0.012034369 -0.09082134 0.068301156 0.06447956 0.02704905 -0.025648704 -0.048758484 0.026469553 0.023346882 0.023457903 -0.02601513 -0.030860133 0.0005625598 -0.10675844 0.07815902 -0.06917535 -0.016045554 -0.006942846 0.020669363 0.028532792 -0.012534892 -0.0455525 0.01163987 0.028963394 -0.01880578 0.03369956 0.032414302 0.014134401 0.08574077 -0.052598685 0.047753513 -0.05800479 -0.0066946866 -0.06855167 -0.019573998 0.00059263315 0.07958627 0.0048390552 0.03690929 0.031500608 -0.058022145 0.00071635284 -0.014540445 -0.010428496 -0.018566085 0.038408566 -0.054738045 -0.029962504 -0.040188156 0.024012394 -0.014452998 -0.05003468 0.005943686 -0.008509373 -0.061549414 0.023885753 0.082754 -0.022531994 0.00173009 0.087945245 -0.0044923523 -0.013445158 0.009250469 0.0005891491 0.042526446 -0.018275162 -0.06403839 0.0063500013 0.063097104 -0.08299163 0.026984159 0.003838092 -0.016692203 0.0077175237 0.08259867 -0.014957306 -0.032185357 -0.07639677 -0.12464945 -0.023881197 0.041951396 0.10231596 -0.015981954 0.04179937 0.01123873 -0.013883825 -0.044120207 0.025149133 0.012166758 -0.026863638 0.02030904 -0.033229906 0.007671989 -0.012821231 0.042715024 -0.071287066 -0.036745872 -0.07291384 -0.12351403 -0.041223496 0.0045823697 0.064325914 0.083015546 -0.012762853 -0.040173143 0.032576643 0.08823304 -0.041918684 -0.016270433 -0.0030963626 0.029400265 -0.08646537 -0.019751428 -0.012035409 0.0763266 -0.06702026 0.049458753 -0.011582748 0.0030481871 -0.0024017282 -0.013691202 -0.10858393 -0.006797146 -0.073782235 0.020061538 -0.010526458 0.010791709 -0.066143 -0.023677344 -0.012067702 0.07749502 -0.00406804 0.034034863 0.03603279 0.03173334 -0.032844357 -0.0059603034 -0.009600664 0.009257553 -0.018704575 0.032583915 0.054668613 -0.024192624 -0.03125407 -0.0132674165 -0.020050481 -0.04952354 -0.026095817 -0.022904307 -0.008728547 0.014327092 -0.030857813 0.0048946943 0.059015382 0.0015240692 0.025237378 0.048408706 0.047538422 0.098497994 0.011309614 -0.045106754 0.019677859 -0.04339834 0.05154237 -0.00020985957 -0.052411452 0.041098535 0.0051615275 0.039347433 -0.031247076 0.045361403 -0.021870028 -0.005548612 -0.015390271 -0.060013227 -0.067595206 0.07568251 -0.00089092087 -0.020058606 -0.020487318 -0.010027328 0.020677816 -0.06483093 0.016132234 0.00053846836 -0.005248163 -0.018537024 3.2376032e-05 -0.052091807 0.014036185 0.0463854 0.012975662 -0.029026484 -0.013194452 0.023081638 -0.03522698 0.037009038 0.020311903 -0.0031802729 -0.034772 -0.034588702 0.058385745 0.03245157 0.0036347127 -0.047358576 -0.018718457 -0.13901809 0.019726764 -0.01396994 0.016077176 -0.017109176 -0.014954598 0.09010344 0.019302916 -0.0057410155 -0.02216846 0.017497765 0.013569517 0.01981258 0.0019093535 -0.036179744 -0.009153305 0.029769128 -0.04822801 -0.099439934 0.03963979 0.04493261 -0.0004578177 0.016960556 0.1339789 0.048427597 0.019599231
frozenconcentratedorangejuice -0.035807397 -0.00059559895 0.016359536 0.07274311 0.02706468 0.006058485 0.04796516 -0.056996148 -0.007665532 -0.044491474 -0.0015955009 -0.007935394 0.01159098 -0.010559125 0.08101907 0.011237468 -0.022398565 -0.006352327 -0.02365009 -0.0545428 0.037327167 -0.016054742 -0.033073515 0.00074673654 0.01381354 -0.00022528227 0.034060277 -0.027961273 -0.014687428 0.067207664 -0.005981379 0.065755665 0.025998302 0.06280176 0.012066739 0.01767559 -0.0052207243 0.05114135 0.009918571 -0.01941752 -0.043488804 -0.006850277 0.063958205 0.02368531 -0.08136484 0.032553896 -0.0409559 0.010596118 0.024399828 0.03863497 -0.074234605 0.033971447 0.03016114 -0.04710795 -0.0043663336 0.054480705 0.023632888 -0.03838469 -0.047134954 0.0019964278 -0.019194117 -0.02015224 0.04809475 -0.053521357 -0.056902066 -0.00025960375 -0.044190694 -0.062439892 -0.15035449 -0.0023320927 -0.050347812 -0.06764928 0.01688512 0.0071660453 -0.0077509927 -0.006911683 -0.05171781 0.028301224 0.0015975311 -0.058564156 -0.012528246 -0.020655727 -0.03076854 -0.03874966 -0.046939254 -0.0063209957 0.0022613476 0.006725192 -0.05094593 0.020547472 -0.11204148 0.035867635 0.01308759 0.048956048 0.043221258 0.025130467 0.021907832 0.020155128 -0.046185236 0.03728864 -0.0051999497 -0.02481152 -0.014093934 0.0326448 0.027029846 0.011771141 0.001968434 -0.011332295 -0.004374349 0.025568957 0.026500577 0.009175283 0.013352401 0.0053734817 0.03898499 -0.019227426 0.037060253 0.059898272 0.012140988 -0.030432414 -0.009637934 -0.018470293 0.008911159 0.027706198 0.006931912 0.0021172347 0.004981531 -0.0074833753 0.03364572 0.0023167646 0.020846618 0.004866844 0.016270503 0.01273841 -0.0045755077 0.029562348 0.06676498 -0.011542526 0.0016130814 0.006267661 -0.05130411 -0.015238199 0.027792891 0.02324341 -0.04371342 -0.040363494 -0.12321371 0.027950455 0.059183873 -0.02131559 -0.025953257 -0.056678936 -0.0014614668 0.06881489 0.017890697 0.025867485 0.0015898301 -0.014997128 -0.0032889564 -0.018846244 -0.032456573 0.052136943 -0.007821331 -0.0072315326 -0.02421627 -0.002652944 0.042328022 0.0048944317 0.09743939 0.027563933 -0.019522384 -0.051195182 -0.02695414 0.06508328 0.022517234 -0.030325087 -0.02655227 0.07432119 0.05763469 -0.032804325 -0.028604276 0.0056275064 0.016756171 -0.10367377 0.002346127 0.055025026 0.0594766 -0.030614274 0.061043285 -0.058229234 0.005469146 0.019932872 0.00043585873 -0.034627352 -0.010213651 0.006291182 0.009811261 -0.020409806 -0.026040683 -0.0126112355 0.010487602 0.06829881 0.007699132 -0.015085971 -0.05749299 -0.010378021 -0.0011123186 -0.02483466 -0.0014963476 0.07773157 0.013270461 -0.024058826 0.0321339 -0.02182361 -0.02052272 0.044784676 -0.063290454 -0.047248006 0.03993752 0.030707087 0.008446069 0.03314536 0.008233577 0.10817777 0.0006045946 0.027953433 -0.0023803934 0.037870646 -0.03170412 0.020361757 -0.014691966 0.019782953 0.033615656 0.016094085 0.005091626 0.020205842 0.017242014 -0.08986353 0.012970908 0.044282433 -0.008280432 0.014000622 -0.03602554 -0.08433479 0.10511735 0.033159584 0.01669355 -0.049658902 -0.039502338 0.069328174 0.036094833 -0.008019876 0.0090392465 -0.031139983 0.04479833 -0.076521456 -0.019905973 -0.017176062 0.050343007 -0.04710745 0.009244781 -0.000536453 -0.021421118 0.010526441 -0.037702166 0.0029028575 0.035228916 -0.040879555 -0.04872387 0.034573026 -0.06735857 0.029820224 -0.07272483 -0.010129447 -0.0051086824 -0.0037972052 0.008273805 -0.003482413 -0.0073470618 -0.07348356 0.111057036 -0.03937941 -0.0373887 -0.0023435913 0.028952302 -0.008644706 -0.011863367 -0.02353825 -0.007980776 0.0052458504 0.0053660795 0.039086778 -0.058353778 -0.017887507 -0.05740708 0.021443626 0.02425933 0.08070432 0.03394503 -0.032906175
softdrink 0.01560176 0.022048233 -0.015431915 0.06579798 -0.006629603 0.022678578 0.13642922 -0.011139461 -0.033266988 -0.034315724 0.027915888 -0.061329238 0.053869084 0.03420229 0.08990473 0.043448627 -0.0696126 -0.011525223 -0.023430482 -0.0077743325 0.078749955 -0.007231055 -0.016841102 -0.0016894629 0.05654444 0.023378266 -0.010030981 -0.043727685 -0.07323894 0.089028396 -0.025487665 0.056005962 0.026780436 0.041395806 0.04499551 0.06112098 -0.015998125 0.038835518 0.0041109594 -0.025811294 -0.00016123825 0.013151972 0.09430586 0.021211894 -0.047635503 0.056921355 -0.08900033 -0.056260165 -0.03654267 0.08897629 0.03915942 0.018141659 0.006291276 0.03306541 -0.013610924 0.12090979 0.03018007 -0.014807179 -0.10832291 -0.09511608 0.0031169094 -0.006393376 0.005304708 -0.067451954 -0.035024375 0.05007833 -0.003603654 -0.025500542 -0.058630865 -0.001336297 -0.063063726 -0.037127204 0.019183138 -0.028765071 0.020639656 -0.024454687 0.009654623 0.1119438 0.004163902 -0.09291497 0.040911764 0.03282519 -0.037016604 -0.03533527 0.013328715 -0.008061222 -0.0075492905 -0.0047897105 -0.046623945 0.017389037 -0.06532318 -0.04406888 0.032852758 0.046612274 0.04959303 0.028454546 -0.03699942 -0.0028883084 -0.042579003 0.0123048825 -0.03435455 -0.007352758 0.036775835 0.01236409 -0.0045404583 0.033386633 -0.0026311777 0.0077508595 -0.006237937 0.023361905 0.04310967 -0.0050166156 0.07460484 0.012703251 0.033726133 -0.005518308 -0.056239147 -0.010620724 -0.023529148 0.05447548 -0.035557445 -0.030142091 -0.046947908 0.006068646 0.04791601 -0.013520755 -0.04666799 0.048462085 0.017297074 -0.013118012 0.02450306 0.0027714 -0.0068395324 -0.010955103 0.04029131 -0.06312595 0.06853506 0.040687278 -0.0022106986 -0.041764762 -0.020781841 0.035342235 0.09436492 0.040610522 -0.020270536 -0.011061492 -0.1355207 -0.00920487 0.08609221 -0.004562216 -0.049870037 0.015326362 -0.06302273 0.06325349 -0.101026036 0.072040126 -0.0026011905 -0.00093522295 0.006620975 -0.04221437 0.0212553 0.06674144 0.0013281554 -0.036402393 0.01780603 -0.025095534 -0.029498452 -0.08441794 0.03305751 0.027745426 -0.050905813 0.0235016 -0.016111055 0.09344447 0.043941204 -0.078155845 -0.019394433 0.048594926 0.021062922 -0.047512487 0.032872036 -0.043247953 -0.020070344 -0.078182474 0.015245667 -0.026243612 0.061265707 0.016214387 -0.090086125 -0.1083121 0.049785372 0.014416934 -0.04247991 -0.02833836 -0.0032456582 0.008903809 -0.055721365 0.014215015 -0.051591814 -0.020285985 0.025246061 0.062454756 -0.03502831 0.043334592 0.06311532 0.015772417 -0.028178431 -0.00957435 0.0497843 0.053398333 0.069855094 -0.03456761 0.029702317 -0.02007448 -0.023073941 0.011329338 -0.00035676546 -0.12595844 0.04041554 0.02830388 0.030655894 0.072791256 -0.036989037 0.060656924 -0.017521856 0.018413518 0.10246728 0.052922312 -0.04221328 -0.045438252 -0.033647504 -0.0053182207 0.0016713869 -0.000924523 -0.00935798 -0.045454293 -0.01691135 -0.00096134166 0.01518512 -0.02651556 0.0038792305 -0.0308328 0.030690648 -0.093395 0.09916882 -0.021851186 -0.07335205 0.02341266 -0.04316828 0.043831963 0.022197133 -0.054090757 0.024706066 -0.056314953 0.03188961 -0.047893 -0.050478235 0.04869377 0.054358844 0.04859972 0.021718783 -0.011967074 -0.017387517 -0.022279495 -0.056436088 0.021532275 0.035309434 -0.023779007 0.017361915 -0.006349532 -0.010230943 0.041976877 -0.0367469 0.045619346 -0.002595501 0.004601773 0.018465448 0.06052632 0.007851705 -0.064520344 0.01933413 0.06574484 -0.05856834 -0.021110969 0.011346826 0.008646339 5.9532e-05 -0.068512484 -0.02609355 -0.04808662 0.031821024 -0.0102476 -0.069643825 -0.03858588 0.028158566 -0.00012146495 0.057792947 0.0775266 0.0044953944 -0.029676799
bluefoodcoloring -0.0030130981 0.042164486 0.0115153 0.08057272 0.025964877 -0.018847601 0.12471595 -0.017608479 -0.016304692 -0.008419966 -0.0749556 -0.0593989 -0.004031145 0.06820236 0.035870958 0.036384936 -0.031645 -0.049280256 0.0031942725 -0.04383242 0.088664815 -0.020748898 0.022936117 0.050925344 0.028166588 -0.031707726 0.039872047 -0.06989107 -0.027373392 0.07696958 0.046126626 0.04673381 -0.07196507 0.023661159 -0.013411789 -0.025601063 0.032343175 0.025027938 0.022316974 -0.06442683 0.0072105764 -0.015183315 0.058345344 0.041195143 -0.112595424 0.008834574 -0.039086998 0.009681532 -0.028484847 0.01168819 -0.053407572 -0.05216723 0.04192183 0.0572785 -0.05275523 0.1008282 0.034788325 -0.078091495 -0.0782195 -0.015673503 -0.0052886135 0.020313136 -0.014385555 -0.011198208 -0.009004776 -0.041969176 0.010127983 -0.0083599575 -0.032929864 -0.051924925 -0.014244789 -0.023002487 -0.012279596 -0.062091883 0.013682591 0.0024853884 0.03603898 0.07632077 -0.018204957 -0.0559081 -0.028144266 -0.005359791 -0.0064434437 -0.047781587 -0.023721345 -0.00010171657 -0.034916226 0.022534123 -0.019258948 -9.4306655e-05 -0.0781706 -0.006401002 0.022833407 0.014852609 0.02614968 0.032372266 0.0033173272 0.020045767 0.0047432547 -0.0053252615 -0.032834373 -0.0146851335 -0.00036493008 0.012495625 -0.046285894 0.0048795324 -0.04447136 -0.004191726 -0.054747924 -0.032626137 0.0539457 -0.01102592 0.007998336 0.026751032 0.032231193 0.003538805 0.014971403 0.03213647 0.00094133744 0.02037372 -0.06206071 -0.018081823 -0.04203124 0.0619355 -0.0022866658 0.06550791 -0.08266134 0.034964927 0.0052681863 0.010702118 0.050319605 -0.032385364 -0.0070868293 0.008361265 0.037796024 -0.0623437 0.10289669 -0.01710393 -0.01090052 -0.057422876 0.026564887 0.008904986 -0.0030120339 0.007773756 -0.004537275 0.00089471665 -0.12205627 0.053833775 0.027208135 -0.02366515 -0.0151792895 -0.009910858 -0.02939678 0.0122233275 0.013919037 -0.024618661 0.029957725 -0.00069851754 0.007953373 -0.0074782837 -0.05741711 0.049943775 0.044796288 -0.008032816 -0.032391958 0.017412003 -0.037042066 -0.036199447 0.074900135 0.06347434 -0.058651358 0.021555973 -0.0054412317 0.008794645 -0.001533376 -0.046712063 0.015880957 0.016063116 0.03258085 -0.069781974 0.020077463 -0.02542562 -0.03031545 -0.056986585 0.028400887 0.008050123 0.036230266 -0.037984014 0.039334748 -0.0015437698 -0.0071404837 -0.0377206 -0.016237658 -0.08699641 -0.01997624 0.010415043 -0.014435524 0.007196685 -0.033757742 -0.01404505 0.021992808 0.012208219 0.015036575 0.051625155 -0.05283778 -0.010780029 -0.005322689 0.02051599 0.0372158 0.13149577 -0.016275842 -0.04303664 0.005548985 -0.011897512 0.012269588 0.030444589 0.0056910086 0.007376989 -0.02987891 0.0427071 0.03359253 0.06843789 -0.029399898 0.04369431 0.02547368 0.006783036 -0.024200898 0.06662361 -0.06883299 -0.027808174 -0.015903737 -0.015193271 0.03443733 0.065614216 -0.016819324 -0.0279111 0.059621632 -0.10723919 -0.027892016 -0.009364906 -0.022614148 -0.014677826 -0.028889023 -0.07857981 0.0908364 0.0035874713 -0.01846273 -0.025497101 0.07684588 0.07851535 0.03663325 0.021151593 -0.08281496 -0.044332698 -0.018834237 -0.0395201 -0.061584532 -0.02937267 0.035517443 -0.054683484 -0.044832587 -0.039714925 -0.013317669 -0.035432324 -0.016526513 0.028126031 -0.023367204 0.024722999 -0.028222308 -0.0054684593 -0.026951928 0.04050148 -0.024454733 -0.009347571 -0.010519943 0.008908055 -0.0039392216 0.040781435 -0.006301315 -0.08316304 0.03478408 0.01710605 -0.053884026 -0.004977092 0.014299757 0.013156968 -0.024653211 -0.030333508 0.03737372 -0.025522953 -0.013493299 0.034117103 -0.036713846 0.018168006 -0.0010973057 -0.03274114 -0.03063871 0.12293255 -0.00227622 -0.0074677384
tomatopaste 0.030244768 0.004718953 -0.062925175 0.10393442 0.06317103 -0.03241404 0.037196666 0.034491982 -0.012863832 0.033264827 -0.0021567252 0.043111946 0.035040308 0.06495896 0.07816163 0.06329368 0.020308418 -0.027943736 0.050288603 0.013022038 -0.055406578 0.076828465 -0.0064070877 0.026403092 0.0033327634 0.0030972008 0.07758794 0.044745035 -0.015590642 0.13038877 0.08751087 -0.016955199 0.01600244 0.0023779888 0.0036553922 -0.051703498 0.0029750036 0.10821545 -0.063232444 -0.041626547 -0.05621825 -0.013938705 0.057298332 0.049853887 -0.10302075 0.054348487 0.0045383745 0.047627762 0.071671754 0.08353534 -0.002684556 -0.019810911 0.029597674 0.012083665 0.010583768 0.04412803 -0.10172656 0.023191758 -0.06986746 0.012388421 -0.072785474 -0.008265053 0.09283729 -0.014891477 -0.049099028 0.005970191 -0.0069142496 -0.013926512 -0.038715214 -0.062595874 0.0018351339 -0.046912663 -0.085011005 -0.013148699 0.0028021447 0.067661665 -0.057854827 0.05276895 -0.010409389 -0.06530027 -0.047378533 0.01835728 -0.009411522 0.04646074 -0.017660111 0.02873315 0.015557343 -0.012398195 0.03669429 -0.024407718 -0.12374135 0.054818574 0.050194874 0.014418386 0.059465297 0.03699034 0.019038172 0.03190726 0.0046026576 0.07008129 -0.025224207 0.031334776 -0.076922454 0.011448373 0.011868957 5.462393e-05 0.021762466 -0.066884466 0.050596375 -0.030043209 -0.005542442 0.04812886 -0.0012015058 0.035443697 0.028265774 -0.011019286 -0.02208322 0.055395573 0.036793478 -0.0074075214 -0.02447788 0.13245133 0.02108562 0.054436225 0.014127038 0.032291938 0.007897848 0.07535824 -0.05183892 -0.024207482 0.058245905 -0.0069306986 -0.02215773 -0.028706875 -0.007588848 -0.0026931986 0.10599925 -0.0761757 -0.02128804 0.056549467 -0.019004788 -0.10139977 0.032597944 0.041304752 -0.06063642 -0.04517546 -0.10589093 0.05952149 0.0214916 0.0645193 -0.0297678 0.05570289 -0.04167448 0.086290635 -0.04306174 0.018572811 0.02102804 -0.021923523 0.0142929 0.012081985 -0.09505266 0.055143617 0.056159765 0.026499063 0.042578947 0.039123684 0.05983403 0.040326454 0.06077956 0.09292141 0.04635748 -0.010659285 -0.09463969 -0.08453559 0.003692546 -0.038321692 0.008395743 0.09971853 0.02600876 -0.047510333 0.013194189 -0.037644517 0.072142914 -0.09978831 0.04828931 -0.010557501 0.08182837 -0.030455515 0.060961336 -0.10239268 -0.07352835 -0.019213255 0.010940814 -0.09883515 -0.05440984 -0.034560412 0.062209845 -0.0027593942 -0.029670568 -0.028855728 0.01359256 0.012464627 0.02016067 0.008172522 -0.015251941 0.043683782 -0.027224353 -0.033895157 -0.03708281 0.06659069 -0.045113765 0.008629054 0.06007633 -0.039578572 -0.041447904 0.023103995 -0.010780837 -0.06860303 -0.045030627 0.025271658 0.06793626 -0.0031107198 0.048293114 0.051626436 -0.04174731 -0.050432578 0.047775805 0.05016271 -0.06193356 -0.043889523 -0.002385924 0.01571139 -0.005734721 0.04213751 -0.009773323 -0.03808458 0.027776457 -0.04360526 -0.0405614 0.0088053215 0.03924711 -0.02604798 -0.015202842 -0.05677928 0.08038041 0.014130129 -0.0008643074 -0.010476943 0.060022995 0.028055675 0.064636566 -0.0012421268 0.003912667 -0.0059648827 0.01346018 0.011085132 0.014454357 0.00082479464 0.045143638 0.008965107 -0.036582764 0.0052330284 0.023301661 -0.013754754 -0.042704415 -0.043810494 0.0410608 0.0043877102 -0.04922638 0.03529656 0.009998798 -0.027208474 -0.06935254 -0.0071993023 0.019625075 0.11861035 -0.033141356 0.011663012 -0.015181113 -0.058461048 0.039538708 0.018345477 -0.042875208 -0.02192629 -0.01945639 0.01259415 -0.04223259 -0.01625964 0.015008117 0.016132265 -0.026400834 0.02553576 -0.03843289 -0.0054512136 -0.051545024 -0.03648689 0.0124649545 0.096774936 0.012910154 0.007268138
peanutbuttercup 0.037715837 0.012638999 -0.10411178 0.044611536 0.005188383 0.009490541 0.105231784 -0.026808036 0.00693442 -0.017069804 -0.017009288 -0.016661681 0.028729258 0.030719265 0.03515362 0.035965912 -0.041063003 0.015366709 -0.006098575 0.006995975 -0.020947523 -0.010471712 -0.0103656035 -0.017982423 0.0062282784 -0.0506802 0.08792683 -0.01706896 0.09883946 0.1283167 0.02339749 -0.044139355 0.010562489 0.026504507 0.04109053 -0.047520056 0.0069921343 0.066608205 -0.06422895 -0.06679067 -0.055089407 0.049624994 0.023460751 0.07201958 -0.080601916 0.037469916 -0.031117927 0.0112481415 0.0055114697 0.015920576 -0.012511315 0.0025016542 -0.034804128 -0.027966805 0.010119998 0.07860376 0.06139892 -0.06159635 -0.053066965 -0.008800723 0.012412931 -0.002884098 0.06955758 -0.045387685 -0.065415934 0.041619536 0.00958052 -0.055112176 -0.015445961 -0.01881179 0.07523372 -0.05104222 -0.0025819591 -0.04299078 -0.025200516 -0.023703579 -0.04981517 0.007904211 -0.006056109 -0.076707795 0.043516766 -0.04137739 -0.025775548 -0.032029167 -0.027094772 -0.055469617 -0.05934284 -0.03809014 -0.009481906 0.0063790483 0.0070897317 0.028267136 0.009129285 0.038182817 0.028277343 0.047134798 0.0504193 0.017993782 -0.020297896 0.020943146 -0.030504145 0.015590343 0.004068475 0.04876349 -0.017736506 -0.09013519 -0.05363534 -0.015394954 -0.07134806 0.014735043 0.05269161 -0.08123654 0.024082053 0.054950677 0.027999531 -0.003321758 -0.014861988 -0.013180892 -0.06574674 0.0051629515 0.009779744 0.016263139 -0.018342871 0.040992107 0.029817713 0.057853796 0.030744728 0.020030254 -0.0041585295 -0.040254377 0.07091814 0.05825445 -0.00228181 0.010058935 0.003046289 -0.024864806 0.10698753 -0.043704327 0.0035396318 -0.0539595 -0.042673916 0.020768996 0.06327437 -0.0035658355 -0.06905845 -0.032849155 -0.12984878 -0.010465782 0.030826293 0.01856683 -0.029622875 0.038349316 -0.039387096 0.0012060096 -0.013192746 0.008057768 -0.03239866 0.015151536 0.011040179 -0.0393153 -0.026062248 0.04841095 0.054624677 -0.014570996 0.038090095 -0.004391483 -0.020434167 -0.082593724 0.053646736 0.021216761 -0.03649826 0.05834888 -0.025930813 0.0060755946 0.0021090582 -0.058744512 -0.015436951 0.10250229 0.051427554 0.019624453 -0.07809668 -0.03836072 0.06616623 -0.08823316 0.018506913 -0.012370395 0.028643113 0.0012968134 0.04984605 -0.026109895 0.010213032 -0.027659154 -0.04071462 -0.07251403 0.023740513 0.024139484 0.0047228634 0.04602039 -0.01818673 -0.040619455 0.032248657 0.041348018 -0.009504728 -0.056557775 -0.0024813775 0.010727766 0.004173493 -0.083817594 0.05017013 0.009447989 -0.06666084 0.07209699 0.012123721 -0.0587553 -0.10010064 -0.01966433 -0.036214903 -0.13471328 0.031294256 0.064480275 -0.024421595 0.019310027 -0.010290999 0.03678883 -0.024588685 0.026353646 0.025246946 0.025730304 -0.055933587 -0.020939393 -0.010176318 0.0055649257 0.0083898185 0.015955653 0.0015768893 -0.0063370466 0.054904237 0.03444279 0.0072477306 0.033223845 -0.004866832 -0.04131352 -0.051337548 -0.059069924 0.09070234 0.006099233 0.0288921 0.07702656 -0.044781283 0.0071006743 0.06831884 0.028839566 0.03240146 0.0035247798 -0.017069172 -0.04098403 -0.03514818 0.011758483 0.016701741 -0.004439446 -0.07535096 -0.0067816037 0.009038018 0.028110307 -0.059844267 0.009569574 0.016349977 -0.012915894 -0.04358259 0.041387893 0.039333276 0.017044343 -0.113878295 0.010241675 -0.037749775 0.011516295 -0.024591966 0.003306317 -0.010908445 -0.008201743 0.056873597 -0.120203964 -0.0197417 -0.05046324 0.010046238 -0.017555736 -0.047142975 -0.046830393 -0.012859553 0.049897935 -0.0025792597 -0.0062122596 -0.025694802 0.055777293 0.054922014 0.037470307 0.0063121095 0.088373646 -0.0041735284 -0.019042898
yeast 0.08112506 0.009959086 -0.013053462 0.05021461 -0.040589873 -0.0072839037 0.052005515 -0.041371565 0.010841293 -0.051705647 0.03821371 -0.08725393 -0.0034727242 -0.0361095 -0.007839023 0.015155815 -0.036732666 0.022570623 0.03261897 0.027771885 -0.08202706 0.016214916 -0.052364122 -0.028260984 -0.019996062 -0.0071499133 0.019270195 -0.016819315 0.07374495 0.15562035 -0.030571884 0.02505068 -0.015090721 0.072618954 0.08547196 -0.02739868 0.04414612 0.041317727 -0.048060592 0.004821526 -0.0017027218 0.005049575 0.043698378 -0.060173135 -0.13259834 0.01805383 -0.023831429 0.022615975 0.031108 0.066166915 0.034176435 0.07908205 0.072480045 -0.0026358084 -0.052668326 0.03682328 -0.016737804 -0.020691063 -0.04146988 -0.010027149 -0.05842046 -0.02265868 -0.053631615 0.0025845666 0.018724395 0.00544154 0.07819223 -0.057443336 -0.16194081 -0.02509867 0.055511367 0.06450729 0.015140804 0.10340392 0.045296073 0.15703045 0.014693498 0.018732354 -0.020416234 -0.015355618 -0.009547455 -0.024476768 -0.055543143 -0.08166668 0.014015372 0.019328047 0.047934752 -0.01679414 0.079322524 -0.04168129 -0.026644915 -0.057210147 -0.0009935166 0.08261359 0.02631108 -0.011576521 0.052672017 -0.013184293 0.062237192 -0.03968537 -0.02595409 -0.09598307 0.009996129 -0.026549589 0.026972026 -0.052900057 -0.05057728 -0.00084667356 -0.0032765605 -0.053505547 0.06605723 0.062457487 -0.026342835 0.03397066 0.053532496 -0.013020313 0.026569707 0.12551458 -0.101080015 0.0027747743 0.08336376 -0.04328465 0.068522535 0.02457293 -0.09489639 5.658548e-05 0.14542864 0.004269717 -0.06836214 -0.04172382 0.090341136 -0.029987063 -0.025112439 -0.019029485 -0.0022652932 -0.01195105 0.1054637 0.014707821 -0.015766991 -0.024522612 0.005269899 0.062542886 -0.1138059 0.025223618 -0.027626285 -0.005264686 -0.09604379 0.09552418 -0.010931976 0.10240236 0.006252761 0.053804956 0.0070524774 0.08044397 -0.07196133 0.01870847 0.018619962 0.08784997 0.0006994769 0.035204116 -0.08259557 0.046897363 0.03458861 0.054171823 -0.028716529 -0.043529496 -0.07206863 0.026711712 0.018861575 -0.051229272 -0.13639294 0.009686034 0.008870924 -0.019899368 -0.16301827 -0.061624944 0.054072727 0.10338237 0.12808627 0.065243974 -0.062028192 -0.030355677 -0.007960711 -0.05422928 0.061281838 0.043921355 0.062122438 0.044288892 -0.011752865 -0.03129627 -0.10856978 -0.021383293 -0.122499816 -0.11984639 -0.034974698 0.059512977 -0.060054526 0.03324652 -0.11956315 -0.040469762 0.03807313 -0.0009099164 0.052553203 0.021720683 -0.031016542 0.05036739 -0.011128346 0.00861642 0.08057083 0.03902588 -0.06223358 0.008548487 -0.010055196 0.0051359558 0.0031998323 0.0379141 0.005928866 -0.05327388 0.058880586 0.016363606 -0.020837741 0.022562776 0.055403195 0.020246867 -0.04259439 -0.0069928663 0.120662585 0.20219767 -0.018201146 -0.021474581 0.054155275 0.05942447 0.056881364 0.05783659 -0.01895153 -0.024020303 -0.15301569 0.11866713 -0.040924553 0.073175386 0.007312326 -0.0048233154 -0.07871361 -0.059503216 0.05497042 -0.06608923 0.031120619 0.033181384 -0.00022659912 0.056871615 0.06139278 0.018084412 0.016165752 -0.009197071 0.0028543752 0.08112574 0.033156082 0.07766669 0.05385153 -0.035688426 -0.0071681063 -0.02282013 0.030044323 0.105425194 -0.0077935355 -0.0504338 0.013919356 -0.008439527 -0.018859664 0.001417531 -0.04672543 0.037416723 -0.08271032 0.016075967 -0.05317917 0.0011536421 -0.023272604 0.010663124 -0.01670424 -0.0048910254 0.07964162 -0.0023183525 -0.03250198 -0.16083655 -0.094719425 -0.0334071 0.003285719 -0.054821763 0.0702862 -0.057290293 -0.033585157 0.024772562 -0.012332989 -0.039569672 0.0004006949 0.042037737 0.047454897 0.11021238 0.06083472 0.1474901
fermentedmilkproduct 0.03450452 0.049195975 -0.006470043 0.06393807 0.012787188 0.041546963 0.0013711419 -0.023762416 -0.040336013 -0.012980705 0.01383991 -0.019892307 0.008522607 0.036296047 0.000891231 0.026142132 -0.032279834 -0.0038578017 -0.022263734 -0.027071482 0.018685734 -0.077163786 -0.030588578 -0.0392422 -0.0014745973 0.027065022 0.10199627 -0.012082469 0.055088013 0.13189192 -0.01682527 0.023534818 0.07404499 -0.00745823 0.042903088 0.061571665 0.0009820235 0.018425519 -0.011358159 -0.06836678 0.04032785 -0.006307026 0.036884647 -0.018442743 -0.09201923 0.016278131 -0.090615734 0.00012461345 0.053036295 0.06119619 -0.00681507 0.01281296 0.00483515 0.0017304781 -0.0014592484 0.07056691 0.06939517 -0.030725306 -0.081496745 -0.005390371 -0.02143379 -0.03430956 0.07872285 -0.03692831 -0.05709077 0.010724097 0.06791394 -0.019377157 -0.062229753 -0.023801606 -0.02928712 0.0011808649 -0.04201893 0.028553974 0.047289886 -0.00809299 -0.029221404 0.105431736 -0.009886041 -0.045978397 0.04425236 -0.014103512 0.026814297 -0.020081017 -0.02322147 -0.04108884 -0.020938404 -0.014824847 -0.01980868 0.027060058 -0.045736082 0.0031874776 -0.0048620263 0.060324144 0.05003515 0.05877821 0.017114047 -0.054096162 -0.027972676 0.0013877403 0.041188575 -0.016481368 -0.008046071 0.020591129 0.0440845 -0.014112901 0.023064464 -0.023523292 -0.02989773 -0.0013066258 0.06882031 -0.061162233 0.053209268 0.020797292 0.089642935 -0.026855372 -0.016703501 -0.0076038567 0.011071152 -0.015501631 -0.008178778 0.007914959 -0.015014289 -0.036282707 -0.025404733 -0.027100116 0.051664688 0.021364152 0.0048726085 -0.015466705 0.051343247 -0.018784396 0.011132321 -0.008677522 0.03710542 -0.019772075 0.08643091 -0.014508367 0.03851494 0.040240604 -0.011230493 0.03287133 -0.039432056 0.05564345 -0.050207116 -0.026118577 -0.13454631 0.05951655 -0.006659282 0.007434665 -0.0027058618 -0.052091755 0.021385713 0.055588406 -0.07828276 0.06291014 0.03662166 -0.030348275 0.020338833 0.053080168 -0.0025327853 0.039214205 0.043817367 -0.024343394 -0.0420334 0.022660065 -0.031347156 -0.014967467 0.12009769 0.041585963 -0.10643555 -0.0068357633 -0.009611057 -0.037322503 -0.041130546 -0.032875985 0.008385114 0.023136605 0.05441643 0.05201654 -0.009162553 -0.017264772 0.0030684404 -0.06687564 0.021482995 -0.016270943 0.055385765 0.026461646 0.032594927 -0.066746674 -0.03639923 -0.045592427 -0.037063316 -0.06647469 0.02653615 0.07953901 0.0052331863 -0.048146795 0.012452077 -0.0040482385 0.044163294 0.034531984 -0.0024785027 0.0065507456 -0.007176514 0.036613077 -0.016864227 -0.03625729 0.04207132 0.047928587 -0.014029672 0.04243199 0.027661547 -0.049227398 -0.030798808 -0.0011556646 -0.0095695015 -0.05372396 0.027144965 0.07363312 -0.004748811 0.10776427 0.007942806 0.05222401 -0.05822515 -0.034807168 0.052716576 0.09084674 -0.01850387 -0.025935724 0.02206235 -0.03257102 0.008694595 0.03738613 -0.006156584 -0.043811094 -0.0076163486 0.031089759 0.019083314 -0.023340084 0.062172156 0.024953362 -0.012397351 -0.068590656 0.08264663 -0.027389579 -0.01910577 0.022221511 -0.02744106 0.034288555 0.0029793675 0.008976629 0.02638061 -0.06441885 0.057028584 -0.04098345 -0.015896976 0.0187807 0.041027173 -0.02412014 0.014749853 -0.023327414 0.0047568167 0.042854115 -0.044888463 -0.046422537 -0.011070611 -0.032339863 -0.033548824 -0.0025291767 -0.03333076 -0.030202553 -0.04577606 -0.0141734695 -0.03113116 -0.021802545 -0.022933092 -0.0027262876 0.013543963 -0.021689927 0.052787703 -0.05214578 -0.07028666 -0.009821275 -0.0053737066 -0.044580176 -0.010983037 -0.03563553 -0.010184555 0.0039565144 -0.024988761 0.04574041 -0.049717367 -0.00345548 0.020633172 0.00933476 -0.009025133 0.09348653 -0.040950373 0.06501918
peanutflour 0.072249874 0.036837194 -0.06509607 0.05591771 -0.025965303 -0.025715712 0.05808253 0.012592021 0.038258534 -0.0078618135 -0.017343862 -0.0016705194 0.026305089 0.0054334854 -0.0037689619 0.029017033 -0.02877532 0.0455811 -0.014429512 0.0054005147 -0.083604045 -0.03700594 0.019623 -0.011326293 0.009663815 -0.026267491 0.09533789 -0.043114163 0.13225564 0.13160655 0.023889707 -0.0150221735 -0.05934269 0.036644947 0.0033200923 -0.0016957074 0.026374321 0.05166252 -0.04230876 -0.057747018 -0.0555553 0.016370414 0.058385722 0.025298899 -0.08407346 0.03381768 -0.008036841 0.06977196 0.02661548 0.03861833 0.0056982865 -0.041522615 -0.054090157 0.021407796 -0.0132625345 0.08658696 0.06052348 -0.059829064 -0.016647583 0.037558652 0.012400649 -0.010100199 -0.0073732734 -0.055143293 -0.067837566 0.041512858 0.0431251 0.010466629 -0.019023033 -0.05140035 0.06793856 -0.013789168 0.0028823274 -0.0071258782 -0.05937167 -0.017492069 -0.03346522 0.008144936 -0.007312603 -0.058570426 0.045495108 -0.0853739 0.0011539944 -0.08049353 -0.032672256 0.024972748 -0.04793468 0.0023762248 -0.0025890023 -0.017541016 0.067886494 -0.016179532 0.0016052965 -0.009399891 -0.0016513113 0.024495298 0.032044422 0.026971972 0.0043986393 0.05058922 -0.021157742 0.008982802 -0.049390547 0.03810477 -0.014348574 -0.074064165 -0.02270836 -0.03326997 -0.09124514 -0.021729212 0.025866065 -0.04939565 -0.008405594 0.054189008 0.022884607 -0.027752314 -0.027481172 0.034304187 -0.038710173 0.012769936 0.036005486 0.041398518 -0.051408246 0.071014084 -0.017531058 0.05280084 0.03656113 0.02994527 0.028558942 -0.030008193 0.057781503 0.07965401 -0.04209707 0.012546567 0.0014822036 -0.010374771 0.09033499 -0.075634316 -0.010809361 -0.0287404 -0.061815657 -0.011123898 0.020613143 0.020733891 -0.044399977 -0.044724263 -0.11559019 0.03244511 -0.0042605856 0.064268745 -0.035110064 0.04419189 -0.021866329 0.039838675 0.0060008075 -0.030293133 -0.04342131 0.009392335 0.02706568 -0.014180552 -0.085744634 0.010569234 0.04976781 -0.0028869528 0.07383689 0.0047779153 -0.021153798 -0.04562512 0.03309313 0.023872528 -0.024245616 0.03584497 -0.012425595 0.0005652518 -0.008955278 -0.051983386 0.021041337 0.134918 0.085178 0.0818096 -0.09758097 -0.032689217 0.07647793 -0.11014657 0.003719218 -0.002164047 0.06457526 -0.025291476 0.025127957 -0.031501923 -0.021229792 -0.035965957 -0.07078072 -0.103024304 -0.0064633936 0.03888321 0.0719459 0.032211926 -0.07660867 -0.06306807 0.063999005 0.042399645 -0.004352089 -0.026871694 -0.0003870465 -0.044857677 -0.008858949 -0.00846121 0.04689455 0.02553599 -0.04056242 0.049972102 0.017640442 -0.081565835 -0.07057645 0.0061163735 -0.056097478 -0.07815111 0.06925477 0.059791736 -0.0061048972 0.03575847 -0.00012663845 0.047275774 -0.027904235 0.012285683 0.020048957 0.087251306 -0.0743486 0.002930412 -0.061235227 -0.02324482 0.048626035 -0.01176024 0.04693032 -0.005076521 0.08732139 0.027579535 0.031525623 0.052040037 0.036987092 -0.047971416 -0.049990483 -0.047309726 0.09815289 -0.048226822 0.02322061 0.121338256 -0.03553997 -0.01278007 0.076215565 0.017385751 -0.011230525 0.003083768 0.027809601 -0.056025088 -0.016280256 -0.03435948 0.033618636 0.011692027 -0.053721562 0.008208393 0.011317993 0.022228897 -0.0642667 0.033758905 -0.032064468 0.012233518 -0.028108057 0.05354548 -0.009762638 -0.022883799 -0.14061895 0.035881676 -0.022322755 0.051257282 -0.034586668 -0.018060256 -0.009914969 -0.036102165 0.0654671 -0.10039792 -0.0217894 -0.02269695 -0.05972231 -0.025457231 -0.051876158 -0.046899498 0.002224233 0.03642264 0.006966362 0.02591417 -0.024006907 -0.0070414655 0.077325635 0.009533696 -0.009602611 0.10124501 0.007885402 0.04076629
peachjuice 0.00929291 -0.039337657 -0.020561332 0.05466973 0.071727335 -0.006031478 0.08959098 -0.053792134 -0.0030676818 0.01375051 0.03911027 -0.037329864 -0.007492625 -0.018854648 0.09165385 0.04466042 -0.058127094 0.029434517 -0.01583942 -0.0013621841 0.01446501 -0.021431483 -0.041494388 0.008672338 0.00891393 0.06323063 0.06998989 0.012494107 -0.052597463 0.0960127 0.001109547 0.03023895 0.0077280896 0.008182939 0.059135973 0.05790772 -0.04748098 0.096537866 -0.011568237 -0.033531778 -0.037339836 -0.02581355 0.01941724 0.024630506 -0.09574975 0.07059363 -0.03907369 0.022633312 -0.0105925165 0.04757198 -0.060663804 -0.020048628 0.0058042873 0.0006583207 0.017062262 0.034868468 0.032866172 -0.069147184 -0.03630526 -0.008228794 -0.035220265 -0.0143634165 0.09894019 -0.03710611 -0.012879574 0.041036766 -0.03240021 -0.062363483 -0.176684 0.0040292386 -0.0039642393 -0.08953205 -0.037047658 -0.0055750133 0.022399489 0.0062932484 -0.08446954 0.047718115 0.009670603 -0.050800443 0.0020554177 0.02832643 -0.020403236 -0.043970518 -0.06990114 0.0072958604 -0.010392368 0.023357978 -0.030415203 -0.010756654 -0.17680511 0.017428605 0.03422904 0.020387627 0.050143603 0.025723055 0.044170648 0.04873184 -0.0535453 0.058952894 0.05342778 -0.014693495 0.0036704778 0.014070312 -0.02913137 0.05212136 -0.015682168 -0.04817778 -0.027450895 -0.013970096 0.026748456 0.0731262 -0.049466193 0.013959197 0.055311825 0.009975734 0.04021614 0.024458168 0.008276051 -0.027613502 0.0032555405 0.0372477 0.07310241 -0.027085155 0.0038285723 0.044452246 0.026838904 -0.013951794 0.016266406 -0.019752853 -0.012863928 -0.06865799 -0.017242609 -0.034309458 -0.023519835 0.0005526575 0.109660044 -0.03557436 -0.048229396 -0.027049791 -0.05994771 -0.010360075 -0.013345023 0.034341883 -0.04154859 -0.07490064 -0.13222575 0.018963821 0.0634775 -0.039064646 -0.040110566 -0.0195221 -0.08109073 0.040059526 -0.0049602874 0.07340857 -0.017963009 -0.07376944 -0.043888774 -0.035280406 -0.029879777 0.062688135 0.04788338 -0.022560954 -0.013859624 -0.045277648 0.05128858 -0.039795153 0.13163207 -0.011242764 -0.033897206 3.2598153e-05 -0.058803916 0.02537366 0.049539354 -0.02303634 -0.057118554 0.06621911 0.057021663 -0.022522451 -0.029458616 -0.018500142 0.0041901376 -0.11298714 -0.012994986 -0.013744704 0.10320324 -0.033734847 0.07695766 -0.11451301 0.027728513 0.025652714 0.043309323 -0.06174157 -0.055675715 -0.03827169 -0.0036699174 -0.0100107 -0.050049223 -0.058717474 0.017418956 0.035628445 0.0045817946 0.004753341 -0.047948517 0.030952051 -0.026824312 -0.058056146 0.06509124 0.11678173 -0.020081496 0.012522956 0.022107732 -0.05629809 -0.02337427 0.05332564 -0.058027543 -0.11126438 0.051208753 0.08092418 -0.04121145 -0.009651431 0.057262685 0.10435301 0.007863452 -0.023087377 0.054161258 0.060431466 -0.04215447 -0.048820965 -0.010750974 0.048911728 0.044887103 -0.033608537 -0.0050610234 -0.010657266 0.041532762 -0.08562527 -0.008726119 0.0393861 0.002476773 0.004552772 -0.020219617 -0.060535382 0.09641509 0.001897553 0.0042372514 -0.07049559 -0.07760735 0.06702059 0.05471859 0.013524013 -0.010787129 -0.023179593 0.026725927 -0.030647539 -0.02903885 0.0072299186 0.035075746 0.028914385 -0.037354674 -0.014088467 0.004227371 0.033008084 -0.05762528 -0.0151564395 0.06050029 -0.009926848 -0.0424253 0.04461376 -0.026275048 -0.022298058 -0.09702568 0.019302616 0.045420513 0.09543434 -0.03842581 0.007516355 -0.029790513 -0.05391298 0.11385234 -0.033183895 -0.033023395 -0.055495083 0.048520222 -0.039690122 -0.0008898359 -0.033183496 -0.024574548 -0.019497123 -0.021239879 0.01950986 -0.11036022 -0.01925828 -0.07329911 0.010785607 0.016459297 0.11947335 0.042125728 -0.02788984
palmoil -0.010403395 0.04603273 -0.05815772 0.091235176 -0.03155463 0.036892097 0.10578731 0.05648882 0.024262253 0.053692896 -0.02410356 0.1189006 0.0050267596 -0.0056824037 0.047358017 0.017190903 -0.059401695 -0.006696126 0.053099535 -0.011620818 0.021827847 -0.041017614 0.09497525 0.059578624 -0.030201994 -0.0022296077 0.12919775 0.05452197 0.04109138 0.08300015 0.005371632 -0.0035770112 -0.012140223 -0.0061059752 0.03241846 -0.0563254 -0.0026479997 0.05818817 0.010161885 -0.033858873 -0.06008002 -0.023982463 0.021341963 0.024545725 -0.098897435 0.0047925473 -0.006470681 0.037032217 -0.011721433 0.0066820765 0.027497115 -0.02173275 -0.04057631 0.018795215 -0.049107667 0.034443583 0.008689353 -0.029090544 -0.057427637 -0.009781437 0.048388895 0.011765264 -0.01888622 -0.020902587 -0.07376325 0.09913638 -0.022403676 -0.06345158 -0.021330623 -0.13558432 0.022056306 0.050627034 -0.056930862 -0.048009362 -0.06878729 0.029596817 -0.07668385 0.04785029 -0.018350352 -0.036360215 -0.028431782 -0.035090573 -0.0951495 -0.02362039 -0.049739577 -0.0044580367 -0.02079717 0.04039076 0.021398215 0.015338332 -0.077466875 0.004075771 -0.039621875 -0.02350455 0.022424413 0.024894789 0.045390744 0.0037375179 -0.014654675 -0.011691345 0.05795141 -0.044988524 0.024884272 -0.0040643653 -0.069102496 -0.009379237 0.021476366 -0.022341901 -0.014011983 -0.00555299 -0.088002294 -0.1108543 -0.029194348 0.05849932 0.007097235 -0.0030261762 -0.038734257 -0.06603565 -0.038814466 -0.026542384 -0.028408742 0.091198266 -0.08753047 -0.05704945 -0.046058636 -0.06064798 -0.028974872 0.13091625 0.0075307135 0.032931756 0.020021189 0.041077968 -0.018469239 -0.027704973 -0.012911866 -0.04044494 0.077569306 -0.05478493 -0.023211624 0.015946211 -0.034868713 -0.021110253 0.031493165 -0.0031387107 -0.007663535 -0.07891029 -0.12966707 -0.022588596 -0.029817063 0.051048204 -0.029518422 0.0031037144 -0.00940983 0.063077904 -0.013436165 -0.033559896 -0.0038831136 0.0498777 0.006157689 -0.12210491 0.0689644 0.06142341 0.0286428 0.049101382 0.059608035 -0.09650982 -0.008749779 -0.0074208668 0.088551104 0.016332489 -0.037046213 0.029648798 -0.044361398 0.05357742 0.025200177 0.032132633 0.02477256 0.08593525 0.03812575 0.02758079 -0.06407998 -0.031740192 0.062276848 -0.0710717 0.051587872 0.022248007 0.014113626 -0.050442316 0.0330161 -0.039539352 -1.5331432e-05 0.036630236 0.04801621 -0.029692225 -0.022074599 0.08967871 0.03684146 -0.025933282 -0.07598202 -0.04068713 0.042181354 0.018463505 -0.08317615 -0.09548324 -0.01832723 -0.020083051 -0.019816246 -0.061292384 0.028375532 0.105007894 -0.01276863 0.10499008 -0.017821668 0.03545525 0.0016164873 0.024329428 -0.013644688 -0.014858647 0.03910011 0.008555859 -0.026432572 0.031414945 -0.04865564 0.055494316 0.0032388326 0.052118517 0.04210698 0.023177184 -0.030100144 0.055353314 -0.0027201436 -0.043013606 0.007823338 0.014645808 0.00342545 -0.011604099 0.013626311 -0.07307692 0.053243667 0.002541647 0.021560105 0.014491959 0.016278114 -0.07217827 0.08542997 -0.03208836 -0.021956602 0.054956805 -0.07330936 0.019549938 -0.019312806 0.0144831315 0.019491177 0.029154431 0.09214198 0.0004129447 -0.02857925 -0.056676913 0.060524076 -0.088538975 -0.017201213 -0.0073310914 -0.036205873 0.03576011 -0.0062806197 -0.01154286 0.016295305 0.0075392947 -0.034017924 0.047414154 -0.0480593 0.034217313 -0.09935382 -0.013087275 -0.0070182425 0.051999792 -0.03842657 -0.011987907 -0.03522105 -0.0074919807 0.075151905 -0.07891191 -0.02031417 -0.04130715 0.06703 -0.0055092946 -0.058266465 -0.040078487 -0.027480233 -0.0133119635 -0.0067947726 0.01806654 -0.043906137 0.115144014 -0.00069395686 0.021866776 -0.06764843 0.079831816 0.063484095 -0.0021966267
sanshopepper -0.003160175 -0.01915441 -0.055067036 0.05981062 0.03450087 0.02181562 0.07062386 0.03438863 0.0061604325 0.04609017 -0.028489199 0.036756765 0.02517125 0.09440289 0.0604311 0.034464903 -0.03489531 -0.076613866 0.025932765 -0.0036077201 -0.029155048 0.04027415 0.038774215 -0.031081606 0.022676546 0.0041459696 0.046551347 -0.01307817 0.033362754 0.20586333 0.03876039 -0.03643887 0.054924365 0.024941942 0.08507298 0.024331652 0.021573223 0.046125483 0.008415619 0.034874644 -0.05418854 0.10040757 0.033368237 0.002996806 -0.059498396 0.017448265 -0.010897403 0.089846104 -0.06947562 0.056873213 -0.105667174 -0.035983603 0.0031931316 -0.053377584 0.019041654 0.013021837 -0.035422172 -0.039207317 0.031362806 -0.055234052 0.0117110945 -0.0010340605 0.11440758 -0.014835093 -0.010015143 -0.026137695 0.0022532716 -0.0855674 -0.08247471 -0.07203288 0.0024675354 0.010632033 -0.028718553 -0.046579834 0.068525195 0.033453144 -0.0426746 -0.018931191 0.016763804 -0.015333844 -0.04903763 0.006776821 0.058687713 -0.035046194 -0.02820131 -0.06048677 -0.039662365 0.03616272 0.0529925 -0.04133097 -0.009031957 -0.042008057 -0.02577642 0.026864149 0.052350275 -0.015693167 0.0024428684 0.08207354 0.020157412 -0.0064954897 0.04684156 -0.016492352 -0.04944452 0.055993285 0.02731594 -0.002214985 0.028831659 0.017097484 0.023789229 -0.089994356 -0.0055967476 -0.0020822966 -0.031026978 0.024636492 -0.009611752 -0.031758413 0.035045058 0.076250225 0.0012765264 0.039598815 -0.014440645 0.080657564 -0.0051319655 0.06028417 0.05327429 0.027159162 0.03504787 -0.0144661 -0.077128485 0.001294421 0.09440358 -0.008709476 -0.05263204 -0.046371676 -0.021563234 -0.004929246 0.04246697 -0.043140825 0.011054022 0.06441177 -0.018184897 -0.025699878 -0.03771648 0.026448738 -0.033925902 -0.15460242 -0.10044022 -0.00943265 -0.020483589 0.05148015 -0.0124486685 0.000107190805 0.023062665 0.0006295494 -0.080120295 0.0074315555 -0.028174318 -0.0021077693 -0.049881663 -0.0108930785 0.009853931 0.020858658 0.073599815 -0.03677527 -0.032865062 0.0011654478 0.045628816 -0.044257835 -0.10155563 -0.023251269 -0.00949683 0.015770324 -0.06523651 0.0145741105 0.05540671 0.012848865 0.052255336 0.0747644 0.05857194 -0.063610494 -0.06346147 -0.0067338883 0.054863498 -0.08261579 0.04934688 -0.023775555 0.11177661 -0.047358062 0.041131478 0.028489163 -0.043800995 -0.027887398 0.075072154 0.018959299 0.059678912 -0.03507682 0.052317794 -0.003431824 -0.048681587 0.013160401 0.011465593 -0.018250816 0.04381237 0.0076379883 -0.00915244 0.01934767 0.007037578 -0.035085067 -0.0081646815 0.11134262 -0.08188546 0.017252682 -0.0025107018 -0.04026764 -0.08545946 0.05841669 -0.050298087 -0.05332107 0.077163994 -0.039033618 -0.06467077 0.016426519 0.05341743 0.11143121 0.020966467 0.0486681 0.008701406 0.046033535 -0.03717166 0.04304814 -0.00929359 0.08265786 0.048158363 0.02939364 -0.036546096 -0.003300697 0.011606939 -0.017243616 0.0056557227 -0.000777781 0.015233091 -0.060214434 -0.020748049 -0.035804912 0.09374532 0.071489766 -0.056592017 0.05038888 0.11665212 0.089558214 0.049267404 0.045773715 -0.0022787564 0.00092341006 0.010201702 0.017066468 0.0016325574 0.07706785 0.06074468 0.054877575 -0.004643022 0.013921819 0.024039129 0.012233006 0.022547862 0.07005403 0.018907938 0.02469119 -0.0056687333 -0.026198424 0.030917777 0.036908366 -0.051082756 -0.04568659 0.015989961 0.11869864 -0.019852625 0.042974725 -0.009809621 -0.019573443 0.06724228 -0.015937084 0.013875071 -0.105438985 0.046609525 -0.07589545 0.035144553 0.036306594 0.042300653 -0.02576534 0.0089640515 -0.018250141 0.026491717 -0.03697029 0.041404955 0.017111426 0.048952088 0.09956838 0.03943651 0.048725765
bakedbeans -0.015878947 0.021168286 -0.0015149415 0.10543337 0.072981484 0.02122442 -0.033560902 -0.038104825 0.01702259 0.08476311 -0.019822108 0.046373263 0.056733076 -0.0091700535 0.050354578 0.009308191 -0.036542587 0.099212915 0.01633972 -0.04687865 -0.023795651 0.038287807 -0.03970942 0.00014939532 -0.004761817 -0.04575171 0.077275075 -0.03450366 0.011903772 0.12823391 0.03803747 0.04049769 0.010794973 0.022733456 0.036803346 0.024450488 0.0020363014 0.057192363 -0.049012512 0.002412334 -0.038677745 0.0058084996 0.06762284 0.046880033 -0.122210085 0.020101523 -0.00888558 -0.0100607015 0.029701073 -0.0012541042 -0.0051528476 -0.029922333 0.031427555 0.012799428 -0.031569965 0.03570215 -0.0024814885 -0.004483993 -0.04666596 0.03483789 0.02138929 0.07158322 -0.08197628 -0.008976328 -0.031013282 -0.007737177 -0.019004554 -0.024277143 -0.05795517 -0.030391673 -0.042589005 0.04647673 -0.0066906195 0.03046912 0.032537986 -0.0034147445 -0.02185787 0.014835579 0.02337937 -0.04451061 0.034970302 0.005150052 -0.06216789 -0.0076456973 0.033102855 -0.09727448 0.026848625 -0.0119136805 -0.11453749 0.041009694 -0.026076289 -0.033298783 0.02984614 0.029325534 0.076169565 0.053141363 0.05206599 0.04035963 -0.020495923 0.024612468 -0.004840987 -0.019727929 0.009800154 0.0012409103 0.027792498 -0.024219606 -0.053702112 -0.09790625 -0.06473945 -0.056507505 0.056498982 -0.0319941 0.073762 0.04367218 0.042125277 -0.030487992 -0.039543964 0.027566921 -0.06515355 -0.012951443 0.04238705 0.06255972 -0.10674885 0.057651397 -0.039549373 0.07038882 0.07613489 0.09453089 0.02136006 -0.07911461 0.04813908 0.0025261268 -0.047936715 -0.024157828 0.053334024 0.022159036 0.07391368 -0.00036233664 -0.021324791 0.025435805 -0.05639061 -0.072503455 0.05625887 0.059121277 -0.046451654 -0.08181816 -0.13775739 -0.02124355 0.011709054 0.02725131 -0.0060090623 0.028136967 0.058891766 0.036999412 0.0049638227 -0.04025871 0.028607074 -0.050037466 0.006621264 0.0073555876 -0.070475414 0.0076033813 0.013616544 -0.047365382 -0.009676649 -0.027087044 -0.02459469 -0.0018853508 0.058578312 0.077816114 -0.042257667 0.016011199 -0.023392592 -0.10245169 -0.018298497 6.6153705e-05 -0.008367243 -0.017442016 0.035681557 -0.059045993 -0.022068422 -0.032879718 -0.011298511 -0.055809528 -0.015613066 -0.007656263 0.08658292 0.007055142 -0.012927288 -0.023142051 -0.03805182 -0.044226594 -0.066004306 -0.041505106 0.053415343 -0.011977635 -0.018909749 -0.04970429 -0.039216176 0.08880796 0.0032799675 -0.005525495 0.07179519 -0.045182206 -0.004977431 0.04323721 -0.0049680434 -0.06767005 -0.028080937 0.031538654 -0.09341065 0.07787387 0.02091255 -0.011479264 -0.079030946 0.01593661 -0.1245368 -0.09540058 0.059191644 0.02870192 -0.0035093725 0.062024333 0.045855302 0.12544012 -0.090544306 -0.00022646412 -0.0033088587 0.046409104 -0.052378047 -0.119744465 -0.034502555 0.0023699012 -0.028129289 0.025505546 -0.004718296 -0.01792593 0.027659237 0.046410147 0.052203465 0.05011738 0.020211153 0.038822584 -0.015242286 -0.0646914 0.09017125 -0.01647386 -0.043177165 0.050398953 -0.079390734 0.12087813 0.03008152 0.024448063 -0.038164392 -0.037867256 -0.037985466 -0.021313332 -0.02145743 -0.042298164 0.07449813 0.055268005 0.042178962 0.029129507 0.030084712 -0.015975423 -0.062361818 -0.006538651 0.017201021 -0.007061446 -0.023407195 0.015892122 0.014326908 0.014160895 -0.09211016 0.012820149 0.022970706 -0.030401371 0.0054203356 -0.022077259 0.0133343125 -0.03376633 0.09870009 -0.07081442 -0.048235044 0.024679845 -0.026190652 0.016909448 -0.08249028 -0.03182605 0.035835005 -0.007244395 -0.057627957 -0.042653963 -0.004303395 -0.04646001 0.042813733 -0.011999877 -0.033313405 0.038811974 0.021376366 -0.04628823
chocolateliqueur 0.019980632 -0.0040233387 -0.09014328 0.057001345 0.07912269 0.027547833 0.09682779 -0.031533293 0.032735724 -0.057096776 0.003368374 -0.0386371 0.00057920255 0.033404782 0.106291994 0.035289213 -0.06914905 0.03190072 -0.045980513 0.016029712 0.07676147 -0.003930174 -0.023140393 -0.0996345 0.003974237 -0.0328992 0.15987803 -0.07142996 -0.045130752 0.15879628 0.062213868 0.036425047 -0.008343401 0.014150468 0.05603822 -0.019712927 -0.019049307 0.02318504 0.07132334 -0.012159921 -0.014332743 0.120202795 0.048818637 -0.018868415 -0.100163184 0.003931877 -0.029007943 0.037952684 -0.015791353 0.036256503 0.018673144 0.033544965 0.013594955 -0.0711162 0.009517252 0.06413135 0.012405059 -0.06422433 -0.055705056 -0.0834048 0.05341471 -0.009436091 0.08238177 -0.0073699313 -0.03314209 -0.051726617 0.029305305 -0.013343463 -0.06833895 -0.008295478 0.001976598 -0.066730514 -0.05969783 0.049463205 -0.0038382802 0.0029312372 -0.0024831295 0.08347288 -0.019480146 -0.034345888 0.034558088 0.014748985 -0.024355393 -0.06102943 -0.05879214 0.0053770654 -0.01551435 0.016949393 -0.067281276 -0.007874208 -0.052028943 -0.08023179 -0.021273477 -0.024585448 0.034173183 0.035404027 0.02445539 0.056551933 -0.047840938 0.11778462 0.014041051 0.049940184 0.012629658 -0.01495252 0.008508389 -0.003475151 -0.019364554 -0.003358718 -0.020634962 -0.007763091 0.074497506 -0.049116157 0.026410073 0.022460086 0.0052087135 -0.042902097 0.008810747 0.04656858 0.032084666 -0.018644203 -0.03045869 -0.028746009 -0.0009178482 0.023237783 0.037800595 0.08251148 0.013895059 0.021726925 0.07403047 -0.021698965 0.0053785075 -0.06176703 -0.030458745 -0.020667702 -0.0036841207 -0.029713044 0.08463009 -0.053747885 0.0010401132 -0.07579323 -0.019523408 0.007932718 -0.004494482 0.013663527 -0.03010113 -0.09786562 -0.11105072 -0.032218628 -0.006282869 0.02307748 -0.019201513 0.0034379046 -0.033901144 0.06598691 0.01352918 -0.029415138 0.0137162125 -0.030690076 -0.01579479 0.057921767 0.024796898 0.055255614 0.064342745 -0.040817678 -0.05409643 -0.026048193 0.01422926 -0.08284742 0.040002268 -0.028245298 -0.08659248 0.04256359 0.026112199 0.034987163 -0.066547215 -0.07036969 0.01027172 0.058341667 0.045758493 -0.042440113 -0.0065330034 -0.04211966 -0.003913126 -0.10280433 0.07135148 -0.09936535 0.089322194 0.014234079 0.022657562 -0.058468886 0.13757005 -0.05491915 -0.063862756 -0.036280207 0.035999697 -0.067251235 -0.02940194 -0.040343534 -0.0683206 -0.041111797 0.060060397 0.0018340454 -0.014032595 -0.0013573613 -0.010186533 0.019621665 0.0075562093 -0.06611296 0.0456894 0.05910761 -0.054998413 0.022359414 0.016300322 -0.019250035 -0.15734513 0.044548366 0.046670575 -0.055330448 0.042527504 0.044814892 -0.05142977 0.020530133 0.013682165 0.07528159 -0.0078522395 -0.008349173 0.10811217 0.07598704 -0.035466988 -0.04179987 -0.036996134 0.031985946 0.055232607 0.09570034 -0.024452295 -0.00464267 -0.0037350422 0.008152284 -0.033850484 0.01925619 0.0682676 -0.0050377892 -0.052939847 -0.05427447 0.08119396 0.076685704 -0.005981579 0.08905661 -0.078446366 0.046890978 0.03868402 0.00018501561 -0.011242449 -0.0097294375 0.03376203 -0.06822667 -0.021382418 0.010430077 -0.0033981563 -0.008525478 -0.012440759 -0.016122544 -0.026446313 -0.001739196 -0.036120318 -0.04231324 0.010203885 0.042273484 0.0020516152 0.016474739 -0.05129052 0.045846943 -0.060078844 0.016558798 -0.022981495 0.06739449 -0.04614862 0.016588377 -0.009394559 -0.038334493 0.08506971 -0.06388872 -0.03896922 -0.018709488 -0.06874533 0.022749847 -0.0977422 0.0148801925 -0.03428508 -0.03804165 -0.03404987 0.0055914205 -0.045264535 -0.036317557 0.037561033 0.054024734 0.08272442 0.113972574 0.02073172 -3.893301e-05
celerysalt 0.033353508 0.02982786 -0.07759292 0.06121938 0.038101036 0.019439984 0.07673546 0.004397789 0.032638274 0.0320371 0.044564385 0.003976564 0.018253537 0.05663312 0.0370498 -0.018490301 -0.053959936 -0.023520673 0.011742771 -0.010626002 0.09116879 0.06678264 0.03438495 0.010094974 -0.0065511386 0.0013161963 -0.029496204 -0.020897865 0.053615578 0.13890415 0.05603759 0.02359105 0.05018578 0.07076804 0.068513654 0.0014709658 0.013849331 0.060044892 -0.027176697 -0.042829767 -0.048938062 0.005343736 0.0354023 -0.018371914 -0.07782934 0.014892065 0.029128257 0.15464094 0.023994625 0.03283918 -0.012287613 -0.0010285266 -0.048768155 -0.042860664 0.0411809 0.009495266 0.01931108 -0.03935454 -0.044274993 -0.06182043 -0.02332095 -0.060801566 0.050003022 -0.04757998 -0.06702213 0.018770013 0.014798679 -0.03900814 -0.004311729 -0.10365483 0.034936156 -0.07064042 -0.015973462 -0.0008373179 0.044754125 -0.008263505 0.006772932 0.013283261 -0.0041967165 -0.05556617 -0.047753867 -0.05039216 -0.046532147 -0.029435989 -0.07501048 -0.04354077 -0.025675824 -0.0069079027 -0.021208975 -0.015103087 -0.00056366995 0.044762097 0.015160581 0.065846145 0.04606167 0.016981212 0.016281456 0.08111105 -0.021329705 -0.10312319 -0.054202184 0.004700167 -0.052512206 0.0035793015 -0.00878438 -0.020235622 0.048358332 0.011744705 0.016820235 -0.11679777 -0.020924266 -0.031750232 0.053298257 0.027187694 0.0071032234 -0.017111082 0.05986411 -0.0016339067 -0.030446468 0.0360597 -0.040975686 0.031405855 -0.0382253 0.069907576 0.046264805 0.06265605 0.03380045 0.043934967 -0.051057667 0.0068641845 0.115248114 0.036218796 -0.028327323 -0.035922885 -0.037675187 -0.069982216 0.07256272 -0.09065006 0.019133573 0.027353492 -0.003000158 -0.048190013 0.022399133 0.057132874 -0.016356276 -0.057854358 -0.10683751 0.006012436 0.040112607 0.054578327 -0.027235799 0.03338924 -0.017172035 -0.01386847 -0.06359404 -0.019030241 0.01705129 0.033839878 0.004506173 -0.018238535 -0.046119638 0.0069479044 0.03205424 -0.004137595 -0.0026737321 -0.035941165 0.025893651 -0.05503433 -0.050195243 0.031163841 -0.016051777 -0.02996351 -0.0074690497 -0.016630458 0.01869234 0.0024347883 -0.023878362 0.12722877 0.07277562 -0.03269641 -0.092632234 -0.012840134 0.06057263 -0.071119726 0.023415016 0.038124718 0.06764036 0.028927308 -0.036118533 -0.07602212 -0.016444437 -0.011004181 0.019673688 -0.008311761 0.014505912 0.046919562 -0.0011088848 0.022497082 -0.029642995 -0.029116679 0.051110696 0.026633475 0.086062446 -0.005009938 -0.008622583 -0.040026147 0.0004308964 0.035851143 0.037216794 0.17161398 -0.021630494 -0.06586684 -0.04956328 -0.095530435 -0.12373226 -0.01708535 -0.08025368 -0.09637612 0.014485858 0.048076548 -0.034912847 0.051111817 0.014091075 0.10331696 0.033200122 0.05009726 0.05170266 0.044801354 -0.06849095 -0.029867418 -0.057399657 -0.040719934 0.024875015 0.036983162 0.032443717 -0.0012668124 0.015474067 -0.058207177 -0.038330387 0.0594147 0.065308526 -0.013036611 0.00568984 -0.068068266 0.091517836 0.04737725 -0.06806112 -0.029770564 0.028286712 0.086944416 0.06550942 -0.019506482 -0.024914812 -0.004873381 -0.044575453 0.023141045 -0.010953473 0.008036001 0.032993946 0.01961386 0.0055906572 -0.01904196 0.0008117005 0.0629177 0.015215624 0.094764516 0.012688586 -0.018229932 0.033745605 0.01695906 -0.017701644 0.0021394612 -0.08517502 0.022470683 0.006106497 0.06775159 -0.029533308 -0.02351458 -0.0370335 -0.03326025 0.022376684 -0.06520846 -0.02397019 -0.02979831 -0.0040176674 -0.03523417 -0.014064394 -0.048091255 0.105410844 0.0010715239 0.019333899 -0.016052729 -0.007479702 -0.017248448 0.018800251 -0.042759985 0.043652464 0.13404953 0.00995531 0.021466168
leanbeef -0.08006525 -0.03964574 0.03135005 0.099508144 -0.020157129 0.061911263 0.04646094 -0.03422879 -0.026795216 0.025058921 -0.0252511 0.03832382 0.026213678 -0.0002734773 -0.0026186793 0.015335171 0.0169225 0.0097277 -0.087357655 -0.0055023525 0.019638427 -0.025469588 -0.020516763 -0.05778798 -0.014250796 0.0028593093 0.053003233 0.046247885 0.055484384 0.0829806 -0.053622372 0.021350192 -0.01211646 0.0736704 -0.014534129 0.05147878 -0.0017437804 0.051409587 -0.069520354 -0.07473964 0.025125304 -0.016848318 0.111582056 0.026954856 -0.06424133 0.02670969 0.0013303808 -0.011595247 -0.00789351 0.014293924 -0.010646718 0.02354825 -0.028253408 0.008719016 -0.039774284 0.031313628 -0.06088701 0.023250945 -0.07391997 0.018666249 0.061536174 -0.033689823 0.009202375 -0.04305163 -0.036112987 0.0057503614 -0.028333751 0.012953865 -0.056998324 -0.08941217 -0.039164074 0.020316675 0.0033921357 0.015936565 0.017912237 -0.014740032 -0.041416235 0.035915084 -0.024631737 -0.047582194 -0.031446416 -0.11007056 0.017302215 -0.061963778 0.0025249775 0.004652869 -0.012431029 0.04452153 -0.084792115 0.020367023 0.020951357 0.028533632 0.08310586 -0.041818205 0.0079611335 0.0008413438 0.022102665 -0.038085263 -0.0025767004 -0.07134324 -0.083962515 0.007263288 -0.02439319 0.015826564 0.033380877 -0.071941376 0.038859107 -0.02255839 -0.028328141 -0.06269086 0.012644803 0.011442775 0.022413658 0.03359334 0.06251492 -0.049513154 -0.050130785 -0.010242629 0.012521355 -0.09797312 -0.009978432 0.03728123 -0.010379689 0.027588908 0.008738944 -0.012752096 0.025700381 0.06925592 0.027109515 -0.05355194 -0.0009965478 -0.044600282 0.08494711 0.015531403 0.01490853 -0.022141112 0.07706304 -0.038534746 0.0707701 0.07908331 -0.055313118 -0.040861964 0.07068761 0.05471006 -0.011535721 -0.010050783 -0.11314788 0.009958601 0.004813776 0.12347431 -0.07589541 0.027150929 0.013289239 -0.033697102 -0.100119025 0.019134695 0.018688938 0.0068276655 0.03159754 0.05111132 -0.010289105 0.044003353 -0.034990445 -0.042785984 -0.0549877 -0.013206752 -0.1041456 -0.008096229 0.060958143 0.07614413 0.0019481471 0.047217134 -0.060968243 0.043325998 0.02150534 -0.024859315 -0.048133675 0.05909459 0.00045449752 -0.05023271 -0.07329413 -0.0010427497 0.011800417 -0.05557037 0.025572086 -0.007870555 0.025633901 0.012979751 -0.037576683 -0.113172345 -0.09412269 -0.044270463 0.055474244 0.014346009 0.027397145 0.028212821 -0.010073705 -0.053896334 0.045163848 0.015223904 -0.047384344 0.07490056 0.037469316 -0.0032964796 -0.0072359615 -0.01268848 -0.008942259 -0.0032786475 -0.077138245 0.08343926 -0.020700293 0.01955096 0.034571685 0.06876877 -0.062098276 0.06303166 -0.06566881 -0.0459404 0.002777333 0.03972279 0.07535604 0.050169103 0.002241902 0.055423386 0.05765572 0.011965223 0.028717987 -0.000537253 -0.011248375 -0.04489094 -0.054039523 0.07768781 -0.012337878 -0.01755493 0.020587254 -0.00025460683 0.05458077 -0.031846013 -0.0011081249 -0.05412335 0.038297407 0.020531159 -0.019012716 -0.06463042 0.09865564 -0.11078633 -0.05313767 -0.050851807 0.07151533 0.020026963 -0.016409375 -0.019008277 0.03304483 0.00362424 -0.023162728 -0.019453306 -0.010354768 0.010959664 0.033996485 -0.02326316 -0.03001501 -0.025173774 0.0098497365 -0.019103024 0.006473075 0.09020054 -0.047149774 -0.05500754 -0.08955107 0.0012583304 0.08424984 -0.0664483 -0.091760114 0.012376962 -0.0485356 -0.0072891014 0.002775466 0.010212109 -0.028791469 -0.0040736767 0.08209657 -0.01184451 -0.05226175 -0.043626633 0.016154611 -0.036685202 -0.029616702 -0.04259 0.006049951 -0.07403813 0.01502052 -0.07185738 -0.05651235 0.019639093 0.148693 -9.2356466e-05 0.057077628 0.07501556 0.06072189 0.0017697718
chickendrumstick 0.051524915 -0.04761766 0.016435696 0.12249522 0.020791199 0.047112808 0.026566345 -0.0453695 -0.038239803 0.039713763 -0.12315815 0.018194031 -0.07035869 0.08290249 -0.012940878 0.0837059 -0.015911091 -0.057887472 -0.040203594 -0.027686369 0.01081398 0.04505705 -0.024064427 -0.037503205 -0.003341599 -0.028935164 0.056590818 -0.012191856 0.03306343 0.13429971 -0.08892762 -0.008334331 0.015352955 0.039867103 -0.022918766 0.048212036 0.0073211268 0.07711911 -0.0009790463 -0.03367216 -0.049526528 0.11980489 -0.023397481 0.07712065 -0.08634141 0.032275144 -0.07059673 -0.0032673203 -0.034484804 0.049708657 -0.023154678 -0.009041464 -0.09499332 0.025276367 -0.0031846464 -0.056909077 -0.004940342 -0.044872016 -0.05600097 0.042602383 0.057790786 -0.02462301 0.16287553 -0.005668887 -0.013841499 0.08264754 0.021495761 0.024099562 -0.055576026 -0.054110326 0.017816791 -0.021581063 0.014732805 -0.07028617 -0.035339613 0.0009917954 -0.0076171253 0.041336708 0.0042987242 -0.01916127 0.08232431 -0.03904186 -0.011718513 -0.018632667 -0.03645142 -0.025501236 -0.012726967 0.0073703215 -0.034628667 -0.0026680687 0.008372404 0.05026094 0.02442753 0.03253516 0.03618805 0.03897904 0.05109017 -0.050814483 0.12107642 -0.06463326 -0.02968016 0.07289726 -0.033900972 -0.0002312893 0.027970487 0.018885426 -0.06287121 -0.067118935 -0.079916656 -0.03732378 0.047350794 -0.016312841 0.019213473 0.03701415 -0.04665257 0.006755592 -0.0049405014 0.064476684 -0.07363714 0.022216558 -0.010734089 0.07022423 -0.018451676 0.050777595 0.02025658 0.013912255 0.05632688 0.07545058 0.039431565 -0.054905854 0.010845756 -0.018096572 0.068161145 -0.05590199 -0.036010478 0.0062357504 0.085135445 -0.070300005 -0.008834844 0.03134249 -0.044031203 -0.089623444 0.016150577 0.061135508 -0.05481586 -0.08320019 -0.12161818 0.017639179 -0.03196832 0.07743983 -0.032398105 0.019226694 -0.007485441 -0.01234301 -0.061180916 0.015770476 0.031539053 -0.018017191 0.037618358 -0.0880311 -0.046285756 0.028831504 0.075784095 0.011225586 -0.03697119 -0.053560004 -0.07610381 0.010151703 0.040060308 0.14194247 0.0177103 0.027603483 -0.11150645 -0.093380496 0.12087636 -0.01798338 -0.050247245 0.0023423824 0.028523996 -0.013466147 -0.08285403 -0.018564291 0.05662598 -0.04555341 0.023418881 -0.0363763 0.09330975 -0.0015437678 -0.031900223 -0.1091139 -0.087245114 -0.026464647 0.03571573 -0.026949178 -0.029968983 -0.012374833 0.009524828 -0.024468713 0.027629657 -0.00287387 0.04157104 0.037456486 0.021245675 -0.041525234 -0.021633513 -0.027394686 0.009857724 -0.008563336 0.04275717 0.06691047 -0.031248882 0.045039356 -0.0069819856 -0.04899604 -0.035174616 -0.037408505 -0.057113774 0.0035156775 0.118041396 0.0398866 0.032801148 -0.0020523565 -0.013291451 0.03228955 0.010483172 0.0031378148 -0.029274397 0.048562948 -0.0592245 0.040484153 -0.022891998 0.056961015 0.0131191965 0.035836644 -0.011385474 -0.002822118 0.07385546 -0.052688237 0.03860118 0.07414672 0.014027655 -0.00064738933 -0.14651203 -0.060247187 0.068188325 -0.008584611 -0.029741785 0.009455614 -0.024246458 0.05571899 0.019685099 -0.020578504 -0.03859822 0.012088026 0.010450718 0.025869 -0.053260997 0.007518101 0.078175664 -0.009437117 -0.07443793 -0.03332951 0.008259405 -0.016770897 -0.013798387 0.05865875 0.023582838 -0.08447121 -0.02887429 0.00627024 0.02914879 0.018017963 -0.062723905 0.008620813 -0.08833179 0.07469048 -0.029169254 0.01809472 -0.04374259 -0.06586115 0.10452096 -0.032980822 -0.032762807 -0.062606126 0.015705787 -0.053789295 -0.04833066 -0.021367209 0.012630457 -0.04513694 -0.01088612 -0.12262392 -0.00789902 -0.002763059 -0.00062743574 0.01089952 -0.0045359638 0.124055624 0.027222283 -0.025731545
driedapricot -0.014477332 -0.05559777 0.0021334048 0.10828509 0.05641856 0.046565514 -0.012657225 -0.04999122 -0.01090764 0.015010396 -0.035401233 -0.019176846 0.040635645 -0.09662376 0.12572831 0.022584807 -0.10059725 0.026310364 0.0019465648 -0.014859773 -0.004356253 0.05685736 -0.019787475 0.0076631154 0.019495182 0.010367131 0.043246366 -0.07251945 -0.040487513 0.10588217 0.0735102 -0.075157054 -0.004304668 0.083109975 0.077217795 -0.03306465 0.032190274 0.034023855 0.03906952 -0.029191272 -0.008209404 -0.025834166 0.029421035 -0.041349974 -0.10032928 0.042346265 -0.027619507 0.0038937689 -0.04577134 -0.0037841853 -0.019435894 0.019212458 -0.020243397 -0.04225349 0.023091225 0.05614502 -0.023090016 -0.016256137 -0.04104131 -0.047401313 -0.020867096 0.029351445 0.07200315 -0.02016756 -0.006776519 0.062189057 -0.021367587 -0.008154704 -0.067007236 -0.088090196 -0.06464195 -0.0106577175 0.007843137 0.0009402456 0.025224347 0.051466294 -0.03127784 0.013178686 0.040341526 -0.046846986 0.08972096 0.049156293 -0.024594687 -0.061320737 -0.050143104 -0.014947837 0.013824847 0.0013586265 -0.006835267 0.012793142 -0.037881576 0.032649323 -0.024187835 0.03149408 0.053098507 -0.0011116639 0.045805953 0.024252167 -0.012067763 0.032636844 0.0013244376 0.04078924 -0.011312429 0.05465554 0.013687387 0.0004289318 0.059422523 0.010734241 -0.0034444071 -0.090298414 -0.03621187 -0.039723754 -0.037029646 0.020383311 -0.013133328 -0.013364298 0.0062138233 0.04413012 0.008487341 -0.06282623 0.033363864 0.045290522 -0.01994286 -0.038397864 -0.047657486 0.060746703 -0.005119914 0.03714785 0.04257946 -0.03321678 0.017849984 -0.06736295 -0.03473929 -0.06354642 0.026221426 -0.013022561 0.106570855 -0.03436247 0.046746597 0.0078888275 0.029310659 -0.031312875 -0.0020074109 0.049427163 -0.07229218 -0.09228194 -0.10029693 0.06160618 0.039243557 -0.013633139 -0.017744757 -0.02466797 0.013510014 0.096025646 0.06752965 0.023887701 -0.002029188 -0.026663676 -0.0025663208 -0.033551246 -0.09420136 0.019747622 -0.007843791 0.022834465 -0.04149422 -0.054135885 -0.0114316195 0.02766895 0.052847445 0.080945775 -0.07127859 -0.03574302 -0.04030589 -0.046270654 -0.036055338 -0.013762793 0.009511594 0.084817186 0.06768786 -0.0051271734 0.0024713743 -0.0020479057 0.023821361 -0.05965515 0.014252174 -0.019367877 0.08664761 -0.048918404 0.07592531 -0.08026589 -0.044465467 -0.04471228 0.022486325 -0.0686862 -0.046126336 -0.010225847 0.0067531806 -0.05391325 -0.03450027 0.014641991 0.03278711 0.06373504 0.013692322 -0.030830251 -0.08042761 0.029932953 -0.001910893 -0.06602973 0.049975745 0.07716185 -0.06271467 0.052230313 0.016008936 -0.034318514 -0.06989702 -0.027244106 -0.03426936 -0.13788915 0.027070707 0.039952807 -0.05679207 0.074990034 0.08443856 0.10307216 -0.023845956 0.05441877 0.06564248 0.05175585 -0.068528846 -0.026201084 0.012287496 -0.021360878 0.017626211 0.008286168 -0.023013214 -0.023928534 -0.040381774 -0.04794044 0.034242146 0.018857805 -0.0461909 -0.0127649205 -0.011456895 -0.046682484 0.11229283 0.021944627 -0.0030759526 -0.018955417 -0.02953838 0.11856392 0.0055743624 0.009707816 0.009259258 -0.00984523 0.036157474 -0.020368645 -0.010207519 -0.06297338 0.08830492 0.06647046 -0.015441284 -0.010758986 0.013819263 0.09697014 -0.028414499 0.029789707 -0.058165677 0.0041682282 -0.035937082 0.025486158 -0.005759746 0.03883172 -0.11105041 0.016198322 0.039663393 0.0094165765 -0.054885436 -0.005403553 0.007044155 -0.061596207 0.19127268 -0.026622817 -0.028696222 -0.015975628 0.020060677 0.017479334 0.0011473778 -0.021524077 -0.01212159 -0.011618571 -0.060698695 0.018361382 -0.056894634 -0.040845457 -0.010942272 0.0022567883 0.035939433 0.11720906 0.069703914 0.0036136992
almondmilk 0.06814192 -0.0129991695 -0.07020465 0.07164307 0.04014437 0.02166515 0.07340577 -0.051454276 0.03872145 -0.035019346 0.035917096 -0.04616911 0.01742143 -0.003646493 0.046226315 0.053162336 -0.023014735 0.03673004 -0.06014899 0.00371713 0.023471337 -0.011028487 0.0057949796 -0.074061915 0.0023274214 0.0059473035 0.14615817 0.005190164 0.064626195 0.124901034 0.062584795 -0.0021288882 0.060661517 0.059065133 0.05491885 0.025387758 0.005439131 0.0929303 0.019024882 -0.08849866 -0.00834692 0.027869768 0.029734764 -0.025074065 -0.12145265 0.07077879 0.0014182832 0.031194925 0.03216764 -0.00020116614 -0.045541782 0.012647295 -0.027815245 0.0248554 0.024275044 0.09749423 0.12907878 -0.04179258 -0.03908569 -0.017655894 0.015861627 -0.08082525 0.103940144 -0.046947166 -0.12829697 0.052078925 0.043497954 0.002695173 -0.024771469 -0.009849227 0.046116777 -0.023093347 -0.028928407 0.059821617 -0.06694889 -0.042193316 -0.0679601 0.03596255 0.01114872 -0.04608891 -0.029930368 -0.007876668 -0.027650429 -0.04962799 -0.05090717 -0.058866814 -0.009131296 0.0035460943 -0.02519295 -0.013631898 -0.021900741 -0.039855726 -0.0039833244 0.042046607 0.03782965 0.004863863 0.077299565 -0.025943954 -0.04250333 0.025913052 0.08748547 0.034962546 -0.030937944 0.021818765 -0.0030854149 -0.041587807 0.002096178 -0.050319754 -0.026743481 0.004512582 0.005059149 -0.108625054 -0.003140566 0.02893927 0.074920714 0.024572976 -0.0102738645 0.014791278 0.023095354 0.024492275 -0.0061663804 -0.0008705836 -0.045225628 -0.0022677127 -0.03877872 -0.0018288633 0.006729579 0.0018864125 0.0843406 -0.025784757 0.051570248 0.01140674 -0.01326374 -0.046344485 -0.017464299 -0.03587252 0.10779525 -0.087459594 0.02307998 -0.0025841445 -0.03778668 0.056836 0.0022189496 0.028994026 -0.048738744 -0.11158906 -0.110361814 0.036201175 0.047637373 0.015361392 -0.045328934 0.012094852 -0.018915094 0.07275705 -0.034745604 -0.028979886 -0.042423937 0.011109402 -0.03432824 -0.0016108649 0.038240947 0.0591095 0.050178032 -0.009376466 0.022720193 -0.016855719 -0.033615794 -0.08439619 0.13839585 0.07020408 -0.07403251 0.02555874 -0.024424113 0.028100656 -0.05561953 -0.021414224 -0.05021431 0.097867645 0.095093936 0.047204357 -0.02092037 -0.045018565 0.02942024 -0.08501689 0.02581051 -0.0045166668 0.09925214 0.0047715604 0.036392666 -0.080011375 -0.016336475 -0.016221695 -0.01846175 -0.12515807 0.013416078 -0.021720706 0.023208853 -0.012949809 0.029261407 -0.035110533 0.04214888 0.047901075 0.002955759 0.0047182385 -0.039559677 0.023965348 -0.042009674 -0.11202419 0.06276373 0.10166175 -0.02763694 0.04775898 0.04166299 -0.054095052 -0.026967427 0.0058191344 -0.0038189106 -0.07050006 0.0057858485 0.06932194 -0.061067764 0.104439735 0.019091666 0.08178176 0.009168967 -0.02064477 0.062127165 0.13030165 -0.052244775 -0.044277217 0.018052664 0.0145095885 0.032721963 0.066893026 0.0017315773 -0.03757127 0.048561122 0.009601019 0.060142636 0.03668989 0.010119979 0.011232628 -0.040241644 -0.06241615 0.10073233 -0.022200692 0.0042039324 0.07352972 -0.025765108 0.019669823 0.02806092 0.019808482 0.005156354 -0.037839785 0.008142609 -0.054616496 -0.025236709 -0.04245088 0.05705048 -0.026109386 -0.026708696 -0.00570957 -0.0015065721 0.012533706 -0.069980584 -0.017140394 0.000851645 -0.01792626 -0.011764817 0.05234911 0.07360009 -0.014173798 -0.10599316 0.025113624 -0.046239838 0.051244162 -0.03677795 -0.014318109 -0.008679832 -0.043826606 0.09997822 -0.0629891 -0.03358835 -0.045128487 0.0019991975 0.031593163 -0.037819996 -0.05816525 -0.035484187 -0.042963926 -0.002619246 0.065265335 -0.041249968 -0.009519862 0.043292314 -0.006637398 0.046540484 0.11487926 0.033442523 0.030656133
